{"learner":{"attributes":{},"feature_names":["ICULOS","HR","O2Sat","Temp","SBP","MAP","DBP","Resp","FiO2","pH","BUN","Creatinine","Glucose","Magnesium","Potassium","Hct","Hgb","WBC","Age","Sex","shock","WBC_grad","shock_grad","Temp_grad","Resp_grad","WBC_dev","Resp_dev","shock_dev","Temp_dev"],"feature_types":["float","float","float","float","float","float","float","float","float","float","float","float","float","float","float","float","float","float","float","int","float","float","float","float","float","float","float","float","float"],"gradient_booster":{"model":{"gbtree_model_param":{"num_parallel_tree":"1","num_trees":"12"},"iteration_indptr":[0,1,2,3,4,5,6,7,8,9,10,11,12],"tree_info":[0,0,0,0,0,0,0,0,0,0,0,0],"trees":[{"base_weights":[-9.165797E-1,-9.700294E-1,-3.641338E-1,-1.0022187E0,-8.1799746E-1,-4.6242628E-1,4.5610118E-1,-1.0172194E0,-6.612883E-1,-8.6434895E-1,-3.78753E-1,-5.901146E-1,-1.5309726E-1,1.7597265E0,1.7754874E-1,-1.034781E0,-8.5836065E-1,-6.912716E-1,2.5483258E0,-4.4276038E-1,-9.1359055E-1,1.8319987E0,-4.4928974E-1,-7.146277E-1,-3.4311485E-1,-2.7210984E-1,5.968544E-1,-7.919713E-1,2.804546E0,-3.127557E-1,8.403809E-1,-1.035886E0,7.5429016E-1,-8.7376773E-1,7.5402886E-2,1.5462759E0,-7.238191E-1,3.786953E0,-2.1759364E-1,1.8237809E0,-4.7588125E-1,-9.658818E-1,-6.326318E-1,3.688295E0,-5.8272886E-1,-5.2660316E-1,1.123537E0,-1.758697E-1,-7.6012427E-1,-4.6743312E-1,6.0806197E-1,-5.2805375E-2,-7.1177596E-1,-6.2828004E-2,2.0450935E0,2.7020583E-1,-3.124489E-1,1.4635704E0,4.446308E0,-4.6973237E-1,9.776072E-1,2.510669E-1,3.4468322E0,-3.1090808E-1,7.989541E-1,1.0540992E0,-1.05815955E-1,3.443479E-2,-2.657312E-1,6.346706E-1,-2.5015542E-1,-2.6036024E-1,8.010157E-1,-2.3172025E-1,8.1134245E-2,1.2194414E-1,1.3611228E0,1.2044073E0,-2.3595239E-1,-2.1967402E-1,-6.752705E-2,-2.9083136E-1,6.930173E-1,5.4440576E-1,-1.9989325E-1,1.4104356E0,2.8390527E-1,1.2194414E-1,-2.68884E-1,-1.735159E-1,3.9647532E-1,-1.07747495E-1,1.655938E0,-1.6189498E-1,1.0615404E0,-7.6483846E-2,-2.3917781E-1,2.6594603E-1,-1.5778092E-1,9.078993E-1,4.1155547E-2,-1.300761E-1,1.4032617E-1,5.3986557E-2,-2.4376771E-1,-9.590669E-2,7.121316E-1,8.557265E-2,1.0034938E0,7.885697E-1,-3.259812E-2,4.2181584E-1,1.723149E0,4.7141346E-1,-1.6511291E-1,-1.1404904E-1,7.224418E-1,-8.151705E-2,6.78405E-1,-1.9918938E-1,1.1861769E0],"categories":[],"categories_nodes":[],"categories_segments":[],"categories_sizes":[],"default_left":[0,0,0,0,0,0,0,0,0,0,0,0,0,0,0,0,0,0,0,0,0,0,0,0,0,0,0,0,0,0,0,0,0,0,0,0,0,0,0,0,0,0,0,0,0,0,0,0,0,0,0,0,0,0,0,0,0,0,0,0,0,0,0,0,0,0,0,0,0,0,0,0,0,0,0,0,0,0,0,0,0,0,0,0,0,0,0,0,0,0,0,0,0,0,0,0,0,0,0,0,0,0,0,0,0,0,0,0,0,0,0,0,0,0,0,0,0,0,0,0,0],"id":0,"left_children":[1,3,5,7,9,11,13,15,17,19,21,23,25,27,29,31,33,35,37,39,41,43,45,47,49,51,53,55,57,59,61,63,65,67,69,71,73,75,-1,77,79,81,83,85,87,89,91,93,95,97,99,101,103,105,107,-1,-1,109,111,113,115,117,119,-1,-1,-1,-1,-1,-1,-1,-1,-1,-1,-1,-1,-1,-1,-1,-1,-1,-1,-1,-1,-1,-1,-1,-1,-1,-1,-1,-1,-1,-1,-1,-1,-1,-1,-1,-1,-1,-1,-1,-1,-1,-1,-1,-1,-1,-1,-1,-1,-1,-1,-1,-1,-1,-1,-1,-1,-1,-1],"loss_changes":[6.5977344E2,9.893555E1,1.5934085E2,8.5333984E1,7.229639E1,6.954559E1,7.656789E1,4.404492E1,7.024356E1,6.656152E1,5.4195393E1,3.812323E1,4.625991E1,1.0129705E2,5.731637E1,2.9447266E1,2.321643E1,5.25213E1,3.0317635E1,2.63396E1,4.1810547E1,5.046841E1,4.102191E1,2.0174591E1,4.9954067E1,4.3007317E1,6.800753E1,5.827151E0,5.202379E1,2.1046928E1,1.1420663E2,2.8172852E1,3.034636E1,1.888623E1,5.1926113E1,3.0636383E1,3.38461E1,1.1072472E1,0E0,3.2288544E1,2.138742E1,3.0576172E1,3.879248E1,1.2860512E1,2.0853367E0,3.1159027E1,1.05603195E2,9.084359E1,1.4123535E1,2.9936401E1,5.5368263E1,5.945801E1,1.3491264E1,3.191731E1,4.9979424E1,0E0,0E0,2.9819572E1,3.7138855E1,1.5891638E1,2.2957502E1,6.596244E1,3.1259155E1,0E0,0E0,0E0,0E0,0E0,0E0,0E0,0E0,0E0,0E0,0E0,0E0,0E0,0E0,0E0,0E0,0E0,0E0,0E0,0E0,0E0,0E0,0E0,0E0,0E0,0E0,0E0,0E0,0E0,0E0,0E0,0E0,0E0,0E0,0E0,0E0,0E0,0E0,0E0,0E0,0E0,0E0,0E0,0E0,0E0,0E0,0E0,0E0,0E0,0E0,0E0,0E0,0E0,0E0,0E0,0E0,0E0,0E0],"parents":[2147483647,0,0,1,1,2,2,3,3,4,4,5,5,6,6,7,7,8,8,9,9,10,10,11,11,12,12,13,13,14,14,15,15,16,16,17,17,18,18,19,19,20,20,21,21,22,22,23,23,24,24,25,25,26,26,27,27,28,28,29,29,30,30,31,31,32,32,33,33,34,34,35,35,36,36,37,37,39,39,40,40,41,41,42,42,43,43,44,44,45,45,46,46,47,47,48,48,49,49,50,50,51,51,52,52,53,53,54,54,57,57,58,58,59,59,60,60,61,61,62,62],"right_children":[2,4,6,8,10,12,14,16,18,20,22,24,26,28,30,32,34,36,38,40,42,44,46,48,50,52,54,56,58,60,62,64,66,68,70,72,74,76,-1,78,80,82,84,86,88,90,92,94,96,98,100,102,104,106,108,-1,-1,110,112,114,116,118,120,-1,-1,-1,-1,-1,-1,-1,-1,-1,-1,-1,-1,-1,-1,-1,-1,-1,-1,-1,-1,-1,-1,-1,-1,-1,-1,-1,-1,-1,-1,-1,-1,-1,-1,-1,-1,-1,-1,-1,-1,-1,-1,-1,-1,-1,-1,-1,-1,-1,-1,-1,-1,-1,-1,-1,-1,-1,-1],"split_conditions":[1.5369575E0,2.0833334E-2,9.764706E-1,1.7605634E0,2.1052632E-1,7.211155E-1,-1.6666667E-1,1.2599406E0,1.4568211E0,-6.5665233E-1,-6.216495E-1,1.6185567E-1,1.6942708E0,2.3476396E0,1.7605634E0,3.5692708E0,2.1016948E0,-8.5876286E-1,5.762712E-1,-9.1030926E-1,9.442971E-1,9.2105263E-1,1.8010309E0,-1.1666666E0,1.7984375E0,6.433041E-1,4.3661973E-1,-4.0178043E-1,-1.40625E-1,6.154639E-1,5.4568213E-1,6.015929E0,-1.2881356E0,-6.458333E-1,-8.450704E-2,-1.4874843E0,1.1554602E0,-2.3197293E-1,-2.1759364E-1,-8.6440676E-1,-1.3402062E-2,3.1529412E0,-1.9384615E0,2.8347936E-1,-2.274678E-1,2.3876107E0,1.1842105E0,6.176991E-1,-7.015625E-1,-1.6666666E0,-9.2231077E-1,-1.0526316E-1,-8.333333E-1,1.0484536E0,1.8229167E-1,2.7020583E-1,-3.124489E-1,-3.6302084E-1,-5.327586E-1,-1.7593269E0,1.5529412E0,1.0526316E-1,-6.216495E-1,-3.1090808E-1,7.989541E-1,1.0540992E0,-1.05815955E-1,3.443479E-2,-2.657312E-1,6.346706E-1,-2.5015542E-1,-2.6036024E-1,8.010157E-1,-2.3172025E-1,8.1134245E-2,1.2194414E-1,1.3611228E0,1.2044073E0,-2.3595239E-1,-2.1967402E-1,-6.752705E-2,-2.9083136E-1,6.930173E-1,5.4440576E-1,-1.9989325E-1,1.4104356E0,2.8390527E-1,1.2194414E-1,-2.68884E-1,-1.735159E-1,3.9647532E-1,-1.07747495E-1,1.655938E0,-1.6189498E-1,1.0615404E0,-7.6483846E-2,-2.3917781E-1,2.6594603E-1,-1.5778092E-1,9.078993E-1,4.1155547E-2,-1.300761E-1,1.4032617E-1,5.3986557E-2,-2.4376771E-1,-9.590669E-2,7.121316E-1,8.557265E-2,1.0034938E0,7.885697E-1,-3.259812E-2,4.2181584E-1,1.723149E0,4.7141346E-1,-1.6511291E-1,-1.1404904E-1,7.224418E-1,-8.151705E-2,6.78405E-1,-1.9918938E-1,1.1861769E0],"split_indices":[0,11,28,3,8,7,9,1,18,0,17,17,10,0,3,10,14,17,14,17,20,13,17,9,10,18,3,1,11,17,18,15,14,11,3,18,0,12,0,14,17,28,16,18,0,15,13,15,10,9,7,8,9,17,11,0,0,10,26,6,28,8,17,0,0,0,0,0,0,0,0,0,0,0,0,0,0,0,0,0,0,0,0,0,0,0,0,0,0,0,0,0,0,0,0,0,0,0,0,0,0,0,0,0,0,0,0,0,0,0,0,0,0,0,0,0,0,0,0,0,0],"split_type":[0,0,0,0,0,0,0,0,0,0,0,0,0,0,0,0,0,0,0,0,0,0,0,0,0,0,0,0,0,0,0,0,0,0,0,0,0,0,0,0,0,0,0,0,0,0,0,0,0,0,0,0,0,0,0,0,0,0,0,0,0,0,0,0,0,0,0,0,0,0,0,0,0,0,0,0,0,0,0,0,0,0,0,0,0,0,0,0,0,0,0,0,0,0,0,0,0,0,0,0,0,0,0,0,0,0,0,0,0,0,0,0,0,0,0,0,0,0,0,0,0],"sum_hessian":[2.2354975E4,2.038222E4,1.9727554E3,1.6816182E4,3.5660386E3,1.7620386E3,2.1071684E2,1.6105566E4,7.106149E2,3.224775E3,3.412635E2,1.2465613E3,5.154773E2,3.6161877E1,1.7455496E2,1.4497387E4,1.6081799E3,7.048154E2,5.799546E0,3.3830685E2,2.886468E3,9.779627E0,3.3148386E2,8.275156E2,4.1904562E2,4.454279E2,7.0049416E1,1.0575643E1,2.5586231E1,1.0063918E2,7.391578E1,1.4488857E4,8.528744E0,1.5821389E3,2.6041098E1,9.438477E0,6.9537695E2,4.093797E0,1.7057488E0,4.093797E0,3.3421304E2,2.431488E3,4.5498007E2,5.230963E0,4.5486636E0,3.1658698E2,1.48968725E1,6.481846E1,7.6269714E2,3.7105722E2,4.79884E1,2.9793747E2,1.4749042E2,4.8784416E1,2.1265001E1,1.0234493E0,9.552194E0,1.5124306E1,1.0461926E1,9.029097E1,1.0348209E1,6.1179523E1,1.2736258E1,1.4487721E4,1.1371659E0,1.8194654E0,6.7092786E0,1.8876953E1,1.563262E3,7.6190114E0,1.8422087E1,3.0703478E0,6.368129E0,6.631951E2,3.2181793E1,1.0234493E0,3.0703478E0,1.933182E0,2.1606152E0,1.6432047E2,1.6989258E2,2.429555E3,1.933182E0,5.458396E0,4.4952167E2,3.297781E0,1.933182E0,1.0234493E0,3.5252142E0,3.0862683E2,7.960161E0,1.1826525E1,3.0703478E0,5.9814926E1,5.00353E0,5.2764496E1,7.099327E2,1.4783156E1,3.5627408E2,6.936712E0,4.105169E1,1.7216692E2,1.25770546E2,1.48968725E1,1.3259354E2,4.4918053E1,3.866364E0,9.552194E0,1.1712809E1,8.301311E0,6.822995E0,3.7526474E0,6.7092786E0,2.729198E0,8.7561775E1,5.685829E0,4.66238E0,4.923928E1,1.1940242E1,1.364599E0,1.1371658E1],"tree_param":{"num_deleted":"0","num_feature":"29","num_nodes":"121","size_leaf_vector":"1"}},{"base_weights":[-8.291216E-1,-8.8708854E-1,-2.917742E-1,-9.197279E-1,-6.8570244E-1,-4.0492785E-1,1.3455392E-1,-9.4261485E-1,-6.899192E-1,-7.4376976E-1,-4.2524394E-1,-4.6683887E-1,3.9893728E-1,2.8273706E0,8.99716E-2,-9.561384E-1,-6.093869E-1,-7.850164E-1,-2.6180914E-1,-7.601705E-1,3.489848E-1,5.280321E-1,-5.0741136E-1,-5.469941E-1,-1.580501E-1,4.0894173E-2,1.8194698E0,3.8009393E0,-1.9418073E-1,-5.250463E-2,9.6710706E-1,-9.902342E-1,-8.382106E-1,-6.3498414E-1,3.354965E0,-7.990401E-1,1.0387825E0,4.646871E-1,-4.29096E-1,-8.4297943E-1,-6.079743E-1,1.4008353E0,-5.5661052E-2,1.2003212E0,-5.3436947E-1,9.615662E-1,-5.629819E-1,-1.0829322E-1,-5.9836006E-1,8.465465E-2,-7.7597934E-1,9.5926875E-1,-7.0922695E-2,3.510937E0,-1.4265685E-2,5.3258055E-1,1.4044878E0,-2.9164925E-1,4.2011815E-1,-6.0502285E-1,1.3923007E0,-2.9727632E-1,6.796416E-1,-1.5395766E-1,-2.732116E-1,-2.0286234E-1,4.3710026E-1,1.386822E0,2.084526E-1,-2.7712142E-1,-1.9270387E-1,-2.7383882E-1,1.059372E0,2.8377825E-2,1.034302E0,-1.4134979E-1,8.793021E-1,-2.717848E-1,-2.0002003E-1,-2.033238E-1,-5.501808E-2,4.8960787E-1,-2.0478399E-1,7.090826E-1,1.0394715E-2,-2.9765576E-1,4.7573235E-2,1.0561856E0,4.1942373E-2,-1.8231402E-1,2.5442055E-1,1.6076513E-1,-2.2065681E-1,4.5542273E-1,-1.8248951E-1,-1.1250183E-2,5.4758006E-1,2.0170702E-1,-2.5317022E-1,5.280026E-1,-7.389564E-2,2.1916379E-1,1.2952089E0,-3.155416E-1,3.540827E-1,4.924887E-1,-1.08378336E-1,4.2125344E-2,5.4074097E-1,7.494136E-2,-2.9772493E-1,-1.2660079E-1,5.2166474E-1],"categories":[],"categories_nodes":[],"categories_segments":[],"categories_sizes":[],"default_left":[0,0,0,0,0,0,0,0,0,0,0,0,0,0,0,0,0,0,0,0,0,0,0,0,0,0,0,0,0,0,0,0,0,0,0,0,0,0,0,0,0,0,0,0,0,0,0,0,0,0,0,0,0,0,0,0,0,0,0,0,0,0,0,0,0,0,0,0,0,0,0,0,0,0,0,0,0,0,0,0,0,0,0,0,0,0,0,0,0,0,0,0,0,0,0,0,0,0,0,0,0,0,0,0,0,0,0,0,0,0,0,0,0],"id":1,"left_children":[1,3,5,7,9,11,13,15,17,19,21,23,25,27,29,31,33,35,37,39,41,43,45,47,49,51,53,55,-1,57,59,61,63,65,67,69,71,73,75,77,79,-1,81,83,85,87,89,91,93,95,97,-1,99,101,103,-1,-1,105,107,109,111,-1,-1,-1,-1,-1,-1,-1,-1,-1,-1,-1,-1,-1,-1,-1,-1,-1,-1,-1,-1,-1,-1,-1,-1,-1,-1,-1,-1,-1,-1,-1,-1,-1,-1,-1,-1,-1,-1,-1,-1,-1,-1,-1,-1,-1,-1,-1,-1,-1,-1,-1,-1],"loss_changes":[5.643096E2,1.069043E2,8.526503E1,7.337891E1,3.4251587E1,6.966899E1,4.4313404E1,5.7088867E1,5.184607E1,3.373645E1,3.3087616E1,3.2009552E1,5.0977722E1,2.2801834E1,4.5818146E1,4.861328E1,5.3058228E1,2.7573853E1,2.8624062E1,2.2681274E1,4.973762E1,2.4739803E1,3.2072655E1,2.3125397E1,4.035583E1,2.8884996E1,6.2653206E1,3.2805634E-1,0E0,3.5838257E1,3.5084957E1,2.35625E1,6.466821E1,4.4060898E1,8.182884E0,1.9693176E1,4.414927E1,4.853131E1,2.832809E1,1.2594482E1,1.9192017E1,0E0,2.9540644E1,2.8356165E1,4.525139E0,2.989235E1,2.4046745E1,4.447E1,2.029596E1,4.1272655E1,8.029842E0,0E0,2.5929522E1,2.0395706E1,1.4478549E1,0E0,0E0,2.8910784E1,4.0955814E1,4.090028E0,2.627829E1,0E0,0E0,0E0,0E0,0E0,0E0,0E0,0E0,0E0,0E0,0E0,0E0,0E0,0E0,0E0,0E0,0E0,0E0,0E0,0E0,0E0,0E0,0E0,0E0,0E0,0E0,0E0,0E0,0E0,0E0,0E0,0E0,0E0,0E0,0E0,0E0,0E0,0E0,0E0,0E0,0E0,0E0,0E0,0E0,0E0,0E0,0E0,0E0,0E0,0E0,0E0,0E0],"parents":[2147483647,0,0,1,1,2,2,3,3,4,4,5,5,6,6,7,7,8,8,9,9,10,10,11,11,12,12,13,13,14,14,15,15,16,16,17,17,18,18,19,19,20,20,21,21,22,22,23,23,24,24,25,25,26,26,27,27,29,29,30,30,31,31,32,32,33,33,34,34,35,35,36,36,37,37,38,38,39,39,40,40,42,42,43,43,44,44,45,45,46,46,47,47,48,48,49,49,50,50,52,52,53,53,54,54,57,57,58,58,59,59,60,60],"right_children":[2,4,6,8,10,12,14,16,18,20,22,24,26,28,30,32,34,36,38,40,42,44,46,48,50,52,54,56,-1,58,60,62,64,66,68,70,72,74,76,78,80,-1,82,84,86,88,90,92,94,96,98,-1,100,102,104,-1,-1,106,108,110,112,-1,-1,-1,-1,-1,-1,-1,-1,-1,-1,-1,-1,-1,-1,-1,-1,-1,-1,-1,-1,-1,-1,-1,-1,-1,-1,-1,-1,-1,-1,-1,-1,-1,-1,-1,-1,-1,-1,-1,-1,-1,-1,-1,-1,-1,-1,-1,-1,-1,-1,-1,-1],"split_conditions":[1.5846447E0,1.096734E0,9.859155E-1,2.1052632E-1,3.125E-2,9.9690723E-1,-8.578125E-1,1.7464789E0,3.125E-2,3.1549296E0,-1.1412561E0,1.1693227E0,1.6421875E0,3.1578946E-1,7.4501667E0,1.8385416E-1,4.453125E0,1.9827734E0,-3.4329897E-1,0E0,-8.875027E-1,-1.1338698E-1,-4.671875E-1,-1E0,8.6170214E-1,-5.453125E-1,1.9094945E-1,1.8830861E0,-1.9418073E-1,8.705179E-1,3.1764707E-1,6.015929E0,-5.135909E-1,1.4705882E0,-7.894737E-1,0E0,7.262756E-1,1.5557522E0,3.5099602E0,1.4083086E0,7.96875E-2,1.4008353E0,-5.263158E-1,9.791667E-1,-2.631579E-1,8.3333336E-2,4.871354E0,-2.5311905E-1,-1.9736842E0,1.5789474E0,-1.374359E0,9.5926875E-1,-2E0,-4.31454E-1,-2.6760563E-1,5.3258055E-1,1.4044878E0,-1.374359E0,3.0508474E-1,-5.523043E-1,-1.18863046E-1,-2.9727632E-1,6.796416E-1,-1.5395766E-1,-2.732116E-1,-2.0286234E-1,4.3710026E-1,1.386822E0,2.084526E-1,-2.7712142E-1,-1.9270387E-1,-2.7383882E-1,1.059372E0,2.8377825E-2,1.034302E0,-1.4134979E-1,8.793021E-1,-2.717848E-1,-2.0002003E-1,-2.033238E-1,-5.501808E-2,4.8960787E-1,-2.0478399E-1,7.090826E-1,1.0394715E-2,-2.9765576E-1,4.7573235E-2,1.0561856E0,4.1942373E-2,-1.8231402E-1,2.5442055E-1,1.6076513E-1,-2.2065681E-1,4.5542273E-1,-1.8248951E-1,-1.1250183E-2,5.4758006E-1,2.0170702E-1,-2.5317022E-1,5.280026E-1,-7.389564E-2,2.1916379E-1,1.2952089E0,-3.155416E-1,3.540827E-1,4.924887E-1,-1.08378336E-1,4.2125344E-2,5.4074097E-1,7.494136E-2,-2.9772493E-1,-1.2660079E-1,5.2166474E-1],"split_indices":[0,27,3,8,11,17,10,3,11,3,12,7,10,23,0,10,11,25,17,6,12,6,10,9,18,10,12,1,0,7,28,15,0,18,13,6,0,15,7,1,10,0,13,11,13,11,10,12,13,8,16,0,9,1,3,0,0,16,14,6,25,0,0,0,0,0,0,0,0,0,0,0,0,0,0,0,0,0,0,0,0,0,0,0,0,0,0,0,0,0,0,0,0,0,0,0,0,0,0,0,0,0,0,0,0,0,0,0,0,0,0,0,0],"split_type":[0,0,0,0,0,0,0,0,0,0,0,0,0,0,0,0,0,0,0,0,0,0,0,0,0,0,0,0,0,0,0,0,0,0,0,0,0,0,0,0,0,0,0,0,0,0,0,0,0,0,0,0,0,0,0,0,0,0,0,0,0,0,0,0,0,0,0,0,0,0,0,0,0,0,0,0,0,0,0,0,0,0,0,0,0,0,0,0,0,0,0,0,0,0,0,0,0,0,0,0,0,0,0,0,0,0,0,0,0,0,0,0,0],"sum_hessian":[1.8124086E4,1.6358719E4,1.7653665E3,1.407411E4,2.284609E3,1.3951293E3,3.7023727E2,1.279658E4,1.27753E3,1.866607E3,4.1800192E2,1.2957538E3,9.9375404E1,5.013244E0,3.6522403E2,1.2295711E4,5.0086896E2,1.0446462E3,2.3288385E2,1.8393059E3,2.730114E1,3.273986E1,3.8526205E2,1.0281069E3,2.6764685E2,8.019193E1,1.9183468E1,3.842652E0,1.170592E0,3.1499792E2,5.0226093E1,9.532293E3,2.7634175E3,4.984901E2,2.37885E0,1.0372325E3,7.4136653E0,4.325547E1,1.8962839E2,1.188249E3,6.51057E2,1.4354132E0,2.5865726E1,1.997184E1,1.2768023E1,1.34487295E1,3.7181332E2,1.0808601E2,9.2002094E2,1.9278821E2,7.4858635E1,1.7993246E0,7.839261E1,9.503058E0,9.68041E0,2.078246E0,1.764406E0,2.0941696E2,1.05580956E2,1.0602183E1,3.962391E1,9.530979E3,1.3150995E0,5.0543976E2,2.2579778E3,4.895206E2,8.969494E0,1.1113875E0,1.2674625E0,5.7486005E2,4.6237247E2,4.513444E0,2.9002213E0,3.9399006E1,3.8564615E0,1.8813266E2,1.4957259E0,8.7241046E2,3.1583853E2,5.586563E2,9.240064E1,6.571866E0,1.9293861E1,9.481778E0,1.0490061E1,7.428394E0,5.339628E0,2.4706337E0,1.0978096E1,3.6094052E2,1.087279E1,5.339447E1,5.469154E1,3.5907617E0,9.164302E2,1.8105997E2,1.1728239E1,2.9546895E0,7.1903946E1,6.06339E0,7.2329216E1,2.565083E0,6.937975E0,5.2446065E0,4.4358034E0,6.493561E0,2.029234E2,8.872935E1,1.6851614E1,3.4171112E0,7.1850724E0,6.320324E0,3.3303585E1],"tree_param":{"num_deleted":"0","num_feature":"29","num_nodes":"113","size_leaf_vector":"1"}},{"base_weights":[-7.4360746E-1,-8.1111157E-1,-2.5327343E-1,-8.470201E-1,-5.761842E-1,-3.0555475E-1,4.3966702E-1,-8.868738E-1,-6.6922706E-1,-3.7142578E-1,-6.727592E-1,-3.1352088E-1,2.7046382E0,-2.7741013E-2,9.239977E-1,-9.114049E-1,-6.6937035E-1,-7.261957E-1,-2.0324789E-1,-4.1199857E-1,1.203017E0,-7.408804E-1,-1.1449084E-1,-3.763792E-1,2.988783E-2,9.491182E-2,9.9248594E-1,6.819222E-1,-6.98484E-1,3.049091E-1,1.6070344E0,-5.8547074E-1,-9.2500174E-1,-7.5536835E-1,-2.4174954E-1,-3.0852908E-1,-7.9871076E-1,-2.3745589E-1,7.959887E-1,9.5933795E-1,-4.6173647E-1,-4.770551E-2,3.0516605E0,-7.688262E-1,-6.994603E-2,-3.0414936E-1,2.1882517E0,3.685904E-1,-4.0369174E-1,9.8965394E-1,-1.433988E-1,3.4163578E0,1.2535203E-1,1.0481248E0,-8.4610397E-1,-5.272033E-1,1.5808809E0,2.249199E0,4.053588E-1,-2.0389809E-1,1.545653E-1,-2.7821237E-1,3.2783094E-1,-2.3790498E-1,9.1434464E-2,-9.943778E-2,8.365113E-1,-1.897589E-1,-1.3781935E-3,-2.4347366E-1,3.2684752E-1,1.4154083E-1,-1.0358939E-1,6.660324E-1,-2.9095098E-1,1.8147798E-1,-1.4967044E-1,-2.8480676E-1,3.8665926E-1,-2.0120719E-1,1.3975865E0,-2.4404813E-1,-1.425528E-1,-1.4799409E-1,8.2987034E-1,7.0954037E-1,-1.1808522E-1,1.4792758E0,2.6480433E-1,-8.6913764E-2,5.618219E-1,-1.2379202E-1,6.6348904E-1,1.9700028E-1,1.2184485E0,-9.060224E-2,3.529119E-1,3.5270634E-1,1.4547614E0,-1.361531E-1,3.081495E-1,-2.6521837E-2,4.9091017E-1,1.7335133E-1,-2.881455E-1,-2.2831833E-1,5.598172E-1,1.0220618E-1,6.650011E-1,3.5308766E-1,9.241593E-1,5.3989697E-1,-9.478588E-2],"categories":[],"categories_nodes":[],"categories_segments":[],"categories_sizes":[],"default_left":[0,0,0,0,0,0,0,0,0,0,0,0,0,0,0,0,0,0,0,0,0,0,0,0,0,0,0,0,0,0,0,0,0,0,0,0,0,0,0,0,0,0,0,0,0,0,0,0,0,0,0,0,0,0,0,0,0,0,0,0,0,0,0,0,0,0,0,0,0,0,0,0,0,0,0,0,0,0,0,0,0,0,0,0,0,0,0,0,0,0,0,0,0,0,0,0,0,0,0,0,0,0,0,0,0,0,0,0,0,0,0,0,0],"id":2,"left_children":[1,3,5,7,9,11,13,15,17,19,21,23,25,27,29,31,33,35,37,39,41,43,45,47,49,-1,-1,51,53,55,57,59,61,63,65,67,69,71,-1,73,75,77,79,81,83,85,87,89,91,93,95,97,99,101,103,105,107,109,111,-1,-1,-1,-1,-1,-1,-1,-1,-1,-1,-1,-1,-1,-1,-1,-1,-1,-1,-1,-1,-1,-1,-1,-1,-1,-1,-1,-1,-1,-1,-1,-1,-1,-1,-1,-1,-1,-1,-1,-1,-1,-1,-1,-1,-1,-1,-1,-1,-1,-1,-1,-1,-1,-1],"loss_changes":[4.896958E2,1.09256836E2,6.5073074E1,7.9350586E1,3.3919678E1,4.083026E1,2.8586687E1,4.8549316E1,5.4803406E1,3.6014526E1,4.4521545E1,3.5927032E1,5.447613E0,3.149952E1,2.5722923E1,3.6138184E1,3.4296356E1,5.560675E1,2.2801035E1,3.74663E1,3.3033E1,1.9543213E1,5.6891304E1,2.876654E1,4.3110718E1,0E0,0E0,4.85383E1,9.6532135E0,3.6668774E1,2.1650803E1,3.4995277E1,3.90459E1,3.137854E1,4.3997032E1,2.7022577E1,3.904785E1,1.7382153E1,0E0,4.915196E1,2.1093567E1,1.2634273E1,3.7550697E1,1.2773254E1,5.2868732E1,2.9546478E1,3.1163391E1,5.031366E1,3.2675217E1,3.7879288E1,4.6348473E1,1.1646061E1,1.4971839E1,2.214747E0,5.7512245E0,1.3273502E1,9.946735E0,1.3164146E1,1.2036751E1,0E0,0E0,0E0,0E0,0E0,0E0,0E0,0E0,0E0,0E0,0E0,0E0,0E0,0E0,0E0,0E0,0E0,0E0,0E0,0E0,0E0,0E0,0E0,0E0,0E0,0E0,0E0,0E0,0E0,0E0,0E0,0E0,0E0,0E0,0E0,0E0,0E0,0E0,0E0,0E0,0E0,0E0,0E0,0E0,0E0,0E0,0E0,0E0,0E0,0E0,0E0,0E0,0E0,0E0],"parents":[2147483647,0,0,1,1,2,2,3,3,4,4,5,5,6,6,7,7,8,8,9,9,10,10,11,11,12,12,13,13,14,14,15,15,16,16,17,17,18,18,19,19,20,20,21,21,22,22,23,23,24,24,27,27,28,28,29,29,30,30,31,31,32,32,33,33,34,34,35,35,36,36,37,37,39,39,40,40,41,41,42,42,43,43,44,44,45,45,46,46,47,47,48,48,49,49,50,50,51,51,52,52,53,53,54,54,55,55,56,56,57,57,58,58],"right_children":[2,4,6,8,10,12,14,16,18,20,22,24,26,28,30,32,34,36,38,40,42,44,46,48,50,-1,-1,52,54,56,58,60,62,64,66,68,70,72,-1,74,76,78,80,82,84,86,88,90,92,94,96,98,100,102,104,106,108,110,112,-1,-1,-1,-1,-1,-1,-1,-1,-1,-1,-1,-1,-1,-1,-1,-1,-1,-1,-1,-1,-1,-1,-1,-1,-1,-1,-1,-1,-1,-1,-1,-1,-1,-1,-1,-1,-1,-1,-1,-1,-1,-1,-1,-1,-1,-1,-1,-1,-1,-1,-1,-1,-1,-1],"split_conditions":[1.4415832E0,1.125E0,1.887324E0,2.0833334E-2,-4.2177722E-1,3.2631578E0,-1.0262828E-1,1.2112676E0,2.1052632E-1,-4.7747183E-1,6.770833E-1,1.6421875E0,-2.5199848E-1,2.5282854E-1,-2.141593E-1,-1.1666666E0,8.333333E-1,-6.089652E-1,2.9969072E0,-1.8421053E0,-8.4406294E-2,2.613546E0,1.4487511E0,-5.78125E-1,1.8505208E0,9.491182E-2,9.9248594E-1,-1.1359026E-1,-8.3177084E-1,1.0526316E-1,1.1020025E0,1.378761E0,3.2567708E0,1.3316646E0,4.9635416E-1,1.7521903E-2,2.645995E0,-9.297949E-1,7.959887E-1,-1.8776916E-1,-6.458333E-1,-3.109375E-1,3.1038576E-1,4.7368422E-1,8.731959E-1,-7.247423E-1,-1.0169491E-1,6.666667E-1,3.6271186E0,2.0572917E0,9.14433E-1,-1.3898623E0,6.713147E-1,9.839064E-1,-9.371753E-1,1.14393E0,1E0,2.169014E0,-8.6440676E-1,-2.0389809E-1,1.545653E-1,-2.7821237E-1,3.2783094E-1,-2.3790498E-1,9.1434464E-2,-9.943778E-2,8.365113E-1,-1.897589E-1,-1.3781935E-3,-2.4347366E-1,3.2684752E-1,1.4154083E-1,-1.0358939E-1,6.660324E-1,-2.9095098E-1,1.8147798E-1,-1.4967044E-1,-2.8480676E-1,3.8665926E-1,-2.0120719E-1,1.3975865E0,-2.4404813E-1,-1.425528E-1,-1.4799409E-1,8.2987034E-1,7.0954037E-1,-1.1808522E-1,1.4792758E0,2.6480433E-1,-8.6913764E-2,5.618219E-1,-1.2379202E-1,6.6348904E-1,1.9700028E-1,1.2184485E0,-9.060224E-2,3.529119E-1,3.5270634E-1,1.4547614E0,-1.361531E-1,3.081495E-1,-2.6521837E-2,4.9091017E-1,1.7335133E-1,-2.881455E-1,-2.2831833E-1,5.598172E-1,1.0220618E-1,6.650011E-1,3.5308766E-1,9.241593E-1,5.3989697E-1,-9.478588E-2],"split_indices":[0,20,3,11,18,8,18,3,8,18,11,10,27,4,15,9,9,0,17,13,0,7,25,11,10,0,0,20,10,8,18,15,10,18,10,18,25,12,0,25,11,10,1,8,17,17,14,9,14,11,17,18,7,6,20,18,19,3,14,0,0,0,0,0,0,0,0,0,0,0,0,0,0,0,0,0,0,0,0,0,0,0,0,0,0,0,0,0,0,0,0,0,0,0,0,0,0,0,0,0,0,0,0,0,0,0,0,0,0,0,0,0,0],"split_type":[0,0,0,0,0,0,0,0,0,0,0,0,0,0,0,0,0,0,0,0,0,0,0,0,0,0,0,0,0,0,0,0,0,0,0,0,0,0,0,0,0,0,0,0,0,0,0,0,0,0,0,0,0,0,0,0,0,0,0,0,0,0,0,0,0,0,0,0,0,0,0,0,0,0,0,0,0,0,0,0,0,0,0,0,0,0,0,0,0,0,0,0,0,0,0,0,0,0,0,0,0,0,0,0,0,0,0,0,0,0,0,0,0],"sum_hessian":[1.4799849E4,1.300834E4,1.791509E3,1.1281383E4,1.726957E3,1.6663448E3,1.2516417E2,9.21237E3,2.0690125E3,5.550292E2,1.1719279E3,1.6628402E3,3.504676E0,6.417458E1,6.0989582E1,8.275794E3,9.3657623E2,1.8431217E3,2.2589072E2,5.4180536E2,1.3223798E1,1.0441866E3,1.277412E2,1.4054817E3,2.573585E2,1.0146056E0,2.4900706E0,3.11745E1,3.3000084E1,3.275113E1,2.8238455E1,3.331757E2,7.942618E3,7.79122E2,1.574542E2,2.7343967E2,1.569682E3,2.2412364E2,1.7670774E0,1.8323221E1,5.234822E2,8.468515E0,4.755283E0,1.0022932E3,4.1893402E1,1.1882265E2,8.918553E0,4.9264412E1,1.3562173E3,3.863935E1,2.1871915E2,4.403216E0,2.6771284E1,2.0963507E0,3.0903734E1,2.0178646E1,1.2572483E1,1.7835571E1,1.0402884E1,3.0726456E2,2.5911125E1,7.9338286E3,8.7895355E0,7.526459E2,2.6476124E1,1.5379164E2,3.6625419E0,1.3182771E2,1.4161195E2,1.5596234E3,1.0058635E1,2.913472E1,1.9498892E2,1.0990084E1,7.3331366E0,1.7110844E1,5.0637134E2,5.230037E0,3.2384775E0,1.6095554E0,3.1457274E0,8.684254E2,1.3386784E2,3.7170834E1,4.722569E0,3.0286033E0,1.15794044E2,1.9807266E0,6.937827E0,3.4828728E1,1.4435682E1,1.3524321E3,3.7851202E0,3.595555E1,2.6837976E0,1.959422E2,2.2776945E1,2.4275558E0,1.97566E0,1.6603994E1,1.016729E1,1.004769E0,1.0915818E0,1.9965533E0,2.890718E1,1.9003695E1,1.1749504E0,4.781454E0,7.791029E0,8.844199E0,8.991371E0,3.0371284E0,7.3657556E0],"tree_param":{"num_deleted":"0","num_feature":"29","num_nodes":"113","size_leaf_vector":"1"}},{"base_weights":[-6.5787673E-1,-7.336811E-1,-2.104224E-1,-8.036216E-1,-5.8547956E-1,-3.135535E-1,2.7888633E-2,-8.493049E-1,-5.7958186E-1,-6.1385703E-1,4.7078274E-2,2.5750716E0,-3.2304987E-1,-2.2969684E-1,2.4536468E-1,-7.501148E-1,-9.1173244E-1,-2.4303975E-2,-6.6907775E-1,-6.3328415E-1,3.9218718E-1,1.1290214E0,-2.2849825E-1,9.262745E-1,1.974728E-1,-5.0437534E-1,-1.9043654E-1,-6.4200336E-1,4.041752E-1,1.3740587E-1,1.1294868E0,-8.363608E-1,-4.2008388E-1,-9.323714E-1,-6.725323E-1,-1.5969445E-1,1.3451824E0,-8.070553E-1,-4.546912E-1,-6.589717E-1,4.5956816E-3,1.9681103E0,-1.02841474E-1,3.381461E0,3.349108E-1,-3.3374515E-1,1.8150853E0,-8.238348E-1,-3.7970817E-1,1.0824033E-1,-3.861658E-1,-8.087538E-1,1.0768414E-1,2.8959286E0,1.6923657E-1,1.7229583E0,5.354621E-2,2.51581E0,6.0739094E-1,-6.9356814E-2,-2.5773904E-1,-2.2535889E-1,-4.3105736E-2,-2.8480178E-1,-2.1671325E-1,7.4977446E-1,-2.1027774E-1,-9.133582E-2,1.4830278E-1,8.207199E-1,-3.154093E-2,3.8732755E-1,-2.4636263E-1,2.4164222E-1,-1.5329811E-1,-2.0150228E-1,4.7566336E-2,7.8864986E-1,-3.451873E-2,1.4135742E-1,1.5348954E0,-8.118932E-2,6.604142E-1,3.0457515E-1,1.5299574E0,9.4841456E-1,-1.0080447E-1,8.766386E-1,-1.2147334E-1,1.033635E0,-6.4741686E-2,1.1218843E-1,-2.7155414E-1,-1.4621115E-1,4.710116E-2,-2.3229282E-1,6.876205E-2,-1.7935619E-1,1.5652118E-2,-2.561538E-1,2.4661207E-1,-1.4666034E-1,3.5576952E-1,1.1614487E0,2.3233542E-1,-9.119715E-2,2.0390464E-1,9.064378E-1,1.6785245E-1,1.6347215E-1,-7.444424E-2,8.59078E-1,7.247247E-2,-1.6227113E-1,3.354388E-1],"categories":[],"categories_nodes":[],"categories_segments":[],"categories_sizes":[],"default_left":[0,0,0,0,0,0,0,0,0,0,0,0,0,0,0,0,0,0,0,0,0,0,0,0,0,0,0,0,0,0,0,0,0,0,0,0,0,0,0,0,0,0,0,0,0,0,0,0,0,0,0,0,0,0,0,0,0,0,0,0,0,0,0,0,0,0,0,0,0,0,0,0,0,0,0,0,0,0,0,0,0,0,0,0,0,0,0,0,0,0,0,0,0,0,0,0,0,0,0,0,0,0,0,0,0,0,0,0,0,0,0,0,0,0,0],"id":3,"left_children":[1,3,5,7,9,11,13,15,17,19,21,23,25,27,29,31,33,35,37,39,41,43,45,-1,-1,47,49,51,53,55,57,59,61,63,65,67,69,71,73,75,77,79,81,83,85,87,89,91,93,95,97,99,101,103,105,107,109,111,113,-1,-1,-1,-1,-1,-1,-1,-1,-1,-1,-1,-1,-1,-1,-1,-1,-1,-1,-1,-1,-1,-1,-1,-1,-1,-1,-1,-1,-1,-1,-1,-1,-1,-1,-1,-1,-1,-1,-1,-1,-1,-1,-1,-1,-1,-1,-1,-1,-1,-1,-1,-1,-1,-1,-1,-1],"loss_changes":[4.1510547E2,1.0804053E2,4.3633354E1,7.227344E1,6.034485E1,3.4818085E1,3.0141108E1,3.5870117E1,5.9980743E1,6.310254E1,4.3549885E1,2.065361E0,2.9619675E1,6.464799E1,2.7685236E1,6.471338E1,1.7236084E1,3.147839E1,3.0387573E1,5.17063E1,4.821328E1,5.1890392E1,2.5674377E1,0E0,0E0,2.0452835E1,4.1862186E1,1.8796158E1,5.6709976E1,3.462157E1,2.134539E1,2.47594E1,4.3418915E1,1.1173584E1,2.79581E1,1.4762781E1,3.1095203E1,1.9806793E1,2.9459244E1,3.1605835E1,3.8970837E1,6.7149254E1,1.9069439E1,2.5793388E1,4.4728752E1,2.7062683E1,2.0159773E1,1.4515877E1,2.1855347E1,3.0495646E1,4.0152542E1,9.713417E0,1.866286E1,1.4297394E1,2.2031923E1,1.8073925E1,3.7046276E1,5.894638E0,1.4841496E1,0E0,0E0,0E0,0E0,0E0,0E0,0E0,0E0,0E0,0E0,0E0,0E0,0E0,0E0,0E0,0E0,0E0,0E0,0E0,0E0,0E0,0E0,0E0,0E0,0E0,0E0,0E0,0E0,0E0,0E0,0E0,0E0,0E0,0E0,0E0,0E0,0E0,0E0,0E0,0E0,0E0,0E0,0E0,0E0,0E0,0E0,0E0,0E0,0E0,0E0,0E0,0E0,0E0,0E0,0E0,0E0],"parents":[2147483647,0,0,1,1,2,2,3,3,4,4,5,5,6,6,7,7,8,8,9,9,10,10,11,11,12,12,13,13,14,14,15,15,16,16,17,17,18,18,19,19,20,20,21,21,22,22,25,25,26,26,27,27,28,28,29,29,30,30,31,31,32,32,33,33,34,34,35,35,36,36,37,37,38,38,39,39,40,40,41,41,42,42,43,43,44,44,45,45,46,46,47,47,48,48,49,49,50,50,51,51,52,52,53,53,54,54,55,55,56,56,57,57,58,58],"right_children":[2,4,6,8,10,12,14,16,18,20,22,24,26,28,30,32,34,36,38,40,42,44,46,-1,-1,48,50,52,54,56,58,60,62,64,66,68,70,72,74,76,78,80,82,84,86,88,90,92,94,96,98,100,102,104,106,108,110,112,114,-1,-1,-1,-1,-1,-1,-1,-1,-1,-1,-1,-1,-1,-1,-1,-1,-1,-1,-1,-1,-1,-1,-1,-1,-1,-1,-1,-1,-1,-1,-1,-1,-1,-1,-1,-1,-1,-1,-1,-1,-1,-1,-1,-1,-1,-1,-1,-1,-1,-1,-1,-1,-1,-1,-1,-1],"split_conditions":[1.3462088E0,4.587537E-1,6.619718E-1,1.3020833E-1,2.309859E0,-3.8333333E0,-3.6842105E-1,-4.2092308E-1,-6.5665233E-1,3.2567708E0,-7.894737E-1,1.7643917E0,-1.8856394E-1,3.9690034E0,1.3817708E0,0E0,2.631579E-1,1.3685259E0,-1.3402062E-2,1.3712317E0,-1.374359E0,-3.4329897E-1,1.2420328E0,9.262745E-1,1.974728E-1,1.966142E0,1E0,9.824781E-1,-1.4874843E0,-1.3487179E0,-1.7054264E-1,-1.6056339E0,0E0,8.333333E-1,-4.010345E0,2.8556702E-1,1.3157895E-1,-1.0030928E0,-2E0,2.6101694E0,-1.4E0,-1.3469026E0,2.2421231E0,-3.5938463E-1,-8.336283E-1,-6.97318E-1,1.4487511E0,-9.1806877E-1,6.176991E-1,-1E0,2.7525774E-1,1.9736842E0,1E0,-1.6949153E-2,3.9473686E-1,-1.4E0,-3.6979166E-1,2.4234376E0,2.729137E0,-6.9356814E-2,-2.5773904E-1,-2.2535889E-1,-4.3105736E-2,-2.8480178E-1,-2.1671325E-1,7.4977446E-1,-2.1027774E-1,-9.133582E-2,1.4830278E-1,8.207199E-1,-3.154093E-2,3.8732755E-1,-2.4636263E-1,2.4164222E-1,-1.5329811E-1,-2.0150228E-1,4.7566336E-2,7.8864986E-1,-3.451873E-2,1.4135742E-1,1.5348954E0,-8.118932E-2,6.604142E-1,3.0457515E-1,1.5299574E0,9.4841456E-1,-1.0080447E-1,8.766386E-1,-1.2147334E-1,1.033635E0,-6.4741686E-2,1.1218843E-1,-2.7155414E-1,-1.4621115E-1,4.710116E-2,-2.3229282E-1,6.876205E-2,-1.7935619E-1,1.5652118E-2,-2.561538E-1,2.4661207E-1,-1.4666034E-1,3.5576952E-1,1.1614487E0,2.3233542E-1,-9.119715E-2,2.0390464E-1,9.064378E-1,1.6785245E-1,1.6347215E-1,-7.444424E-2,8.59078E-1,7.247247E-2,-1.6227113E-1,3.354388E-1],"split_indices":[0,1,3,11,3,9,8,5,0,10,13,1,20,0,10,6,8,7,17,25,16,17,25,0,0,0,19,18,18,16,25,3,17,9,2,17,13,17,9,14,15,15,12,5,15,20,25,6,15,8,17,13,9,14,13,15,11,10,0,0,0,0,0,0,0,0,0,0,0,0,0,0,0,0,0,0,0,0,0,0,0,0,0,0,0,0,0,0,0,0,0,0,0,0,0,0,0,0,0,0,0,0,0,0,0,0,0,0,0,0,0,0,0,0,0],"split_type":[0,0,0,0,0,0,0,0,0,0,0,0,0,0,0,0,0,0,0,0,0,0,0,0,0,0,0,0,0,0,0,0,0,0,0,0,0,0,0,0,0,0,0,0,0,0,0,0,0,0,0,0,0,0,0,0,0,0,0,0,0,0,0,0,0,0,0,0,0,0,0,0,0,0,0,0,0,0,0,0,0,0,0,0,0,0,0,0,0,0,0,0,0,0,0,0,0,0,0,0,0,0,0,0,0,0,0,0,0,0,0,0,0,0,0],"sum_hessian":[1.2241695E4,1.0467698E4,1.7739977E3,7.108549E3,3.359149E3,1.2379491E3,5.360486E2,5.9022466E3,1.2063022E3,3.2149512E3,1.441978E2,3.1711779E0,1.234778E3,2.453693E2,2.9067932E2,2.2848704E3,3.6173765E3,1.6761366E2,1.0386886E3,3.1544087E3,6.054237E1,2.8643476E1,1.1555433E2,2.0202422E0,1.1509356E0,5.20408E2,7.1436993E2,1.4865971E2,9.670958E1,2.6007712E2,3.0602203E1,1.810265E3,4.746053E2,3.3273818E3,2.899946E2,1.5333775E2,1.4275921E1,6.3028046E2,4.084081E2,3.0322654E3,1.2214322E2,1.3760401E1,4.678197E1,6.616907E0,2.202657E1,1.1069034E2,4.8639936E0,1.4450525E2,3.7590274E2,2.8298718E2,4.3138278E2,1.2154588E2,2.7113825E1,7.356835E0,8.9352745E1,1.2082624E1,2.4799449E2,7.3273067E0,2.3274897E1,6.604509E1,1.74422E3,2.1514886E2,2.594564E2,3.0753667E3,2.5201526E2,1.800867E0,2.8819373E2,1.25987404E2,2.7350342E1,6.8356624E0,7.440258E0,3.6186612E0,6.266618E2,1.6897638E1,3.9151047E2,2.9860474E3,4.6218098E1,4.412068E0,1.17731155E2,1.0105213E1,3.6551871E0,4.4429256E1,2.3527133E0,3.4529932E0,3.1639142E0,3.513395E0,1.8513174E1,1.5107796E0,1.0917956E2,2.3116882E0,2.5523052E0,8.96089E0,1.3554436E2,3.1317334E2,6.2729416E1,3.3460968E1,2.495262E2,2.9065317E2,1.4072961E2,1.1873912E2,2.8067598E0,1.7807774E1,9.306051E0,4.4743757E0,2.8824592E0,4.657664E1,4.2776104E1,4.955225E0,7.1273994E0,9.403533E1,1.5395915E2,6.1306434E0,1.196663E0,7.1470647E0,1.6127832E1],"tree_param":{"num_deleted":"0","num_feature":"29","num_nodes":"115","size_leaf_vector":"1"}},{"base_weights":[-5.719886E-1,-6.524169E-1,-1.7232849E-1,-7.16289E-1,-4.5441374E-1,-2.1415807E-1,3.198595E-1,-7.617248E-1,-3.9860997E-1,-6.1930466E-1,-2.6000887E-1,-3.1355864E-1,-1.0885028E-2,-6.5359087E-3,7.5021523E-1,-7.834552E-1,-3.238201E-1,-2.1587792E-1,-6.8422306E-1,-6.772061E-1,-8.119304E-2,1.3537127E-2,-3.6042228E-1,-5.228959E-1,-1.428741E-1,4.0877506E-1,-1.480792E-1,1.507797E0,-1.1264675E-1,-3.011167E-1,1.0996661E0,-8.1114316E-1,-4.8282135E-1,-5.7341367E-1,5.343513E-1,2.8646773E-1,-4.1245413E-1,1.2299874E0,-7.1936685E-1,-7.5246763E-1,-1.7649788E-1,1.2374647E0,-4.524794E-1,-8.858045E-2,1.6541746E0,-3.8367754E-1,1.9972286E0,-6.340866E-1,-1.9968903E-1,9.124504E-1,-1.8178618E-1,2.550201E0,2.8805193E-1,8.591589E-1,-2.0105441E-1,6.169166E-1,1.2526171E-1,6.132689E-1,-3.30315E-1,-6.699031E-1,5.4370534E-1,-1.8576553E-1,1.424169E0,-3.0942177E-2,-2.4699514E-1,-1.6098717E-1,2.0452397E-1,2.1343578E-1,-1.9506323E-1,7.178841E-2,8.015722E-1,-1.3329025E-1,2.2306219E-1,-1.3424319E-1,3.7255108E-1,-2.5020456E-1,1.2890668E0,-2.2634058E-1,1.8546766E-1,-4.3297086E-2,-2.4499926E-1,-9.1280445E-2,4.5079598E-1,-2.1621595E-1,6.109358E-1,5.5506445E-2,-2.8592312E-1,3.2405573E-1,-6.701272E-2,9.3771826E-4,1.0669461E0,-4.7659095E-2,-1.7917627E-1,-1.8320704E-1,8.1262153E-1,-2.0404863E-1,1.5790348E-1,5.359661E-1,-1.0377017E-1,8.110888E-1,2.9400237E-2,-7.3592044E-2,1.5705729E-1,1.1319815E0,1.2982714E-1,-1.08652145E-1,1.858968E-1,7.396679E-1,-2.5164431E-2,-8.513839E-2,8.2454994E-2,-5.9893173E-3,4.2215014E-1,2.2420691E-1,-1.3948035E-1,2.2395156E-1,-3.2750702E-1,-1.9669004E-1,2.636087E-1,5.83192E-1,9.090795E-2],"categories":[],"categories_nodes":[],"categories_segments":[],"categories_sizes":[],"default_left":[0,0,0,0,0,0,0,0,0,0,0,0,0,0,0,0,0,0,0,0,0,0,0,0,0,0,0,0,0,0,0,0,0,0,0,0,0,0,0,0,0,0,0,0,0,0,0,0,0,0,0,0,0,0,0,0,0,0,0,0,0,0,0,0,0,0,0,0,0,0,0,0,0,0,0,0,0,0,0,0,0,0,0,0,0,0,0,0,0,0,0,0,0,0,0,0,0,0,0,0,0,0,0,0,0,0,0,0,0,0,0,0,0,0,0,0,0,0,0,0,0],"id":4,"left_children":[1,3,5,7,9,11,13,15,17,19,21,23,25,27,29,31,33,35,37,39,41,43,45,47,49,51,53,55,57,59,61,63,65,67,69,71,73,75,77,79,81,83,85,87,89,91,93,95,97,99,101,103,105,107,109,-1,-1,111,113,115,-1,117,119,-1,-1,-1,-1,-1,-1,-1,-1,-1,-1,-1,-1,-1,-1,-1,-1,-1,-1,-1,-1,-1,-1,-1,-1,-1,-1,-1,-1,-1,-1,-1,-1,-1,-1,-1,-1,-1,-1,-1,-1,-1,-1,-1,-1,-1,-1,-1,-1,-1,-1,-1,-1,-1,-1,-1,-1,-1,-1],"loss_changes":[3.312561E2,1.0820361E2,3.5652554E1,9.332544E1,6.702066E1,3.2196022E1,1.9078167E1,5.373877E1,4.2323334E1,3.525412E1,2.647107E1,3.8164658E1,3.0252125E1,1.2737356E1,2.1850739E1,4.459912E1,5.812887E1,4.926804E1,2.221312E1,3.841864E1,5.501757E1,4.3654057E1,3.941169E1,1.7134354E1,2.4431473E1,3.2733692E1,2.1298853E1,2.2461329E0,1.189839E1,1.32152E1,1.869194E1,4.256006E1,2.9080376E1,2.1145836E1,3.804879E1,4.7285522E1,2.1306122E1,4.2101093E1,1.5113403E1,3.459076E1,2.9417316E1,4.0120495E1,2.810794E1,3.8905815E1,4.794075E1,3.3458267E1,1.4727926E1,1.9440704E1,3.6745415E1,3.063209E1,2.5698122E1,1.5929874E1,2.6891922E1,3.046352E1,1.4921103E1,0E0,0E0,8.788132E0,8.703081E0,9.083304E0,0E0,5.4721537E0,2.0034111E1,0E0,0E0,0E0,0E0,0E0,0E0,0E0,0E0,0E0,0E0,0E0,0E0,0E0,0E0,0E0,0E0,0E0,0E0,0E0,0E0,0E0,0E0,0E0,0E0,0E0,0E0,0E0,0E0,0E0,0E0,0E0,0E0,0E0,0E0,0E0,0E0,0E0,0E0,0E0,0E0,0E0,0E0,0E0,0E0,0E0,0E0,0E0,0E0,0E0,0E0,0E0,0E0,0E0,0E0,0E0,0E0,0E0,0E0],"parents":[2147483647,0,0,1,1,2,2,3,3,4,4,5,5,6,6,7,7,8,8,9,9,10,10,11,11,12,12,13,13,14,14,15,15,16,16,17,17,18,18,19,19,20,20,21,21,22,22,23,23,24,24,25,25,26,26,27,27,28,28,29,29,30,30,31,31,32,32,33,33,34,34,35,35,36,36,37,37,38,38,39,39,40,40,41,41,42,42,43,43,44,44,45,45,46,46,47,47,48,48,49,49,50,50,51,51,52,52,53,53,54,54,57,57,58,58,59,59,61,61,62,62],"right_children":[2,4,6,8,10,12,14,16,18,20,22,24,26,28,30,32,34,36,38,40,42,44,46,48,50,52,54,56,58,60,62,64,66,68,70,72,74,76,78,80,82,84,86,88,90,92,94,96,98,100,102,104,106,108,110,-1,-1,112,114,116,-1,118,120,-1,-1,-1,-1,-1,-1,-1,-1,-1,-1,-1,-1,-1,-1,-1,-1,-1,-1,-1,-1,-1,-1,-1,-1,-1,-1,-1,-1,-1,-1,-1,-1,-1,-1,-1,-1,-1,-1,-1,-1,-1,-1,-1,-1,-1,-1,-1,-1,-1,-1,-1,-1,-1,-1,-1,-1,-1,-1],"split_conditions":[1.2985218E0,1.8385416E-1,1.887324E0,1.2896142E0,0E0,7.211155E-1,-3.4375E-1,1.5789474E0,2.1276595E-2,3.1578946E-1,-5.135909E-1,1.894918E-2,-9.0689653E-1,-9.359375E-1,-6.0012513E-1,1.3943661E0,4.496124E-1,-1.18863046E-1,-1.2258406E0,5.647059E-1,-8.513274E-1,2.5E0,2.3764706E0,1.7522123E-1,-8.3177084E-1,-1.5282052E0,-2.0331664E0,-4.4342908E-1,-3.1104857E-1,6.0195518E0,-9.7476923E-1,-1.915493E0,1.3316646E0,-2.3333333E0,2.3645418E0,-6.7552084E-1,2.1016948E0,1.5402956E-1,6.302083E-1,-6.5665233E-1,4.453125E0,-7.281899E-1,-3.226804E-1,-2.8125E-1,7.118644E-1,-1.948718E-1,-3.6576444E-3,1.8333334E0,2.2831859E-1,-6.873846E-1,2.2671876E0,1.45E0,2.3476396E0,-1.0941176E0,1.3333334E0,6.169166E-1,1.2526171E-1,3.6828804E0,-1.0637168E0,-2.1101377E0,5.4370534E-1,2.4507043E0,3.2041344E-1,-3.0942177E-2,-2.4699514E-1,-1.6098717E-1,2.0452397E-1,2.1343578E-1,-1.9506323E-1,7.178841E-2,8.015722E-1,-1.3329025E-1,2.2306219E-1,-1.3424319E-1,3.7255108E-1,-2.5020456E-1,1.2890668E0,-2.2634058E-1,1.8546766E-1,-4.3297086E-2,-2.4499926E-1,-9.1280445E-2,4.5079598E-1,-2.1621595E-1,6.109358E-1,5.5506445E-2,-2.8592312E-1,3.2405573E-1,-6.701272E-2,9.3771826E-4,1.0669461E0,-4.7659095E-2,-1.7917627E-1,-1.8320704E-1,8.1262153E-1,-2.0404863E-1,1.5790348E-1,5.359661E-1,-1.0377017E-1,8.110888E-1,2.9400237E-2,-7.3592044E-2,1.5705729E-1,1.1319815E0,1.2982714E-1,-1.08652145E-1,1.858968E-1,7.396679E-1,-2.5164431E-2,-8.513839E-2,8.2454994E-2,-5.9893173E-3,4.2215014E-1,2.2420691E-1,-1.3948035E-1,2.2395156E-1,-3.2750702E-1,-1.9669004E-1,2.636087E-1,5.83192E-1,9.090795E-2],"split_indices":[0,10,3,1,17,7,11,8,18,8,0,25,2,10,18,3,25,25,12,28,15,13,28,15,10,16,18,4,20,0,5,3,18,9,7,10,14,0,11,0,11,1,17,11,14,16,6,9,15,5,10,26,0,28,9,0,0,0,15,18,0,3,25,0,0,0,0,0,0,0,0,0,0,0,0,0,0,0,0,0,0,0,0,0,0,0,0,0,0,0,0,0,0,0,0,0,0,0,0,0,0,0,0,0,0,0,0,0,0,0,0,0,0,0,0,0,0,0,0,0,0],"split_type":[0,0,0,0,0,0,0,0,0,0,0,0,0,0,0,0,0,0,0,0,0,0,0,0,0,0,0,0,0,0,0,0,0,0,0,0,0,0,0,0,0,0,0,0,0,0,0,0,0,0,0,0,0,0,0,0,0,0,0,0,0,0,0,0,0,0,0,0,0,0,0,0,0,0,0,0,0,0,0,0,0,0,0,0,0,0,0,0,0,0,0,0,0,0,0,0,0,0,0,0,0,0,0,0,0,0,0,0,0,0,0,0,0,0,0,0,0,0,0,0,0],"sum_hessian":[1.0307882E4,8.580496E3,1.7273865E3,6.4857095E3,2.0947861E3,1.592601E3,1.347855E2,5.6729424E3,8.12767E2,1.1322474E3,9.6253876E2,1.069213E3,5.2338794E2,7.721103E1,5.7574482E1,5.403989E3,2.689536E2,4.967243E2,3.1604272E2,1.0220185E3,1.10228935E2,2.5868762E2,7.0385114E2,4.7930392E2,5.899091E2,1.2846124E2,3.9492673E2,4.190976E0,7.302005E1,1.43975115E1,4.3176968E1,4.9467056E3,4.5728317E2,2.08612E2,6.0341625E1,1.3957825E2,3.5714606E2,5.084811E0,3.1095792E2,8.880351E2,1.3398346E2,2.3705118E1,8.652382E1,2.4442027E2,1.4267351E1,6.978054E2,6.0457067E0,3.5590305E2,1.2340088E2,2.0179409E1,5.697297E2,5.781568E0,1.2267968E2,1.8972733E1,3.7595398E2,2.1985633E0,1.9924128E0,1.642519E1,5.6594864E1,1.2840039E1,1.5574722E0,8.789046E0,3.4387924E1,8.3779884E1,4.862926E3,4.376052E2,1.9677977E1,1.1299511E1,1.9731248E2,5.399974E1,6.3418837E0,5.371946E1,8.585879E1,3.5045602E2,6.6900277E0,3.4745345E0,1.6102768E0,3.0343106E2,7.526826E0,8.510165E1,8.029334E2,1.2527017E2,8.713284E0,6.897781E0,1.6807337E1,3.8335167E1,4.8188652E1,2.4549133E1,2.1987114E2,8.174344E0,6.0930066E0,3.408089E2,3.5699655E2,1.3262521E0,4.719455E0,3.4270947E2,1.3193572E1,7.6917415E0,1.1570914E2,5.5825043E0,1.4596905E1,5.232571E2,4.647261E1,3.1690686E0,2.6124992E0,4.1402805E1,8.127687E1,6.420832E0,1.2551901E1,3.2061575E2,5.533823E1,9.67946E0,6.7457304E0,5.7791715E0,5.081569E1,2.7695878E0,1.0070452E1,6.3639708E0,2.425075E0,2.2993391E1,1.1394531E1],"tree_param":{"num_deleted":"0","num_feature":"29","num_nodes":"121","size_leaf_vector":"1"}},{"base_weights":[-4.879216E-1,-5.59371E-1,-7.921401E-2,-6.437362E-1,-3.6580598E-1,-5.179304E-1,-2.6658745E-2,-7.1350574E-1,-4.4575375E-1,-5.1150286E-1,-2.2613195E-1,-5.744343E-1,2.2276618E0,1.1456977E0,-4.948229E-2,5.744585E-1,-7.246341E-1,-7.594367E-2,-5.521995E-1,-5.5871373E-1,2.0726377E-1,-3.1148726E-1,-1.7443503E-1,-6.3404477E-1,1.9489075E0,1.2878706E-1,8.846395E-1,5.2871144E-1,3.350998E0,-2.1659036E-1,8.040117E-2,2.8116238E0,-7.412947E-2,-7.590873E-1,-3.68906E-1,-2.6821253E-1,3.0934182E-1,-5.7006586E-1,1.1980236E0,-6.2283725E-1,-1.0281393E-1,1.5858276E0,-1.4210959E-2,5.8039343E-1,-2.1946529E-1,8.661998E-1,-7.2944885E-1,-1.7321481E-1,1.0476825E0,1.6829687E0,-4.1135448E-1,-1.7681108E-1,4.8181643E0,-2.6660305E-1,8.5376E-1,6.7205983E-1,-5.5821394E-3,-4.777836E-2,1.4459373E0,-1.8144774E-1,5.2034575E-1,-2.303446E-1,9.6074544E-2,-1.3380077E-1,1.7004594E-1,-9.6714936E-2,3.688983E-1,8.2707286E-1,4.5108758E-2,-2.1147749E-1,-1.15597606E-1,8.653833E-1,-1.739285E-1,-8.445628E-2,-2.0770681E-1,1.14555255E-1,-2.3614745E-1,8.9640796E-1,1.8448676E-1,1.51679E-1,-1.3144624E-1,1.2023447E-1,1.0758799E0,-1.492126E-1,-3.2485772E-2,-1.8382113E-1,7.9578185E-1,-2.3403917E-1,6.6389775E-1,-5.940594E-2,8.6287314E-1,3.3759266E-1,-2.1629895E-1,1.8011425E0,3.7826565E-1,-1.4986566E-1,-1.412738E-2,-1.7678681E-1,4.242469E-1,1.09546766E-1,7.426246E-1,4.49347E-1,-1.1077629E-2],"categories":[],"categories_nodes":[],"categories_segments":[],"categories_sizes":[],"default_left":[0,0,0,0,0,0,0,0,0,0,0,0,0,0,0,0,0,0,0,0,0,0,0,0,0,0,0,0,0,0,0,0,0,0,0,0,0,0,0,0,0,0,0,0,0,0,0,0,0,0,0,0,0,0,0,0,0,0,0,0,0,0,0,0,0,0,0,0,0,0,0,0,0,0,0,0,0,0,0,0,0,0,0,0,0,0,0,0,0,0,0,0,0,0,0,0,0,0,0,0,0,0,0],"id":5,"left_children":[1,3,5,7,9,11,13,15,17,19,21,23,25,27,29,31,33,35,37,39,41,-1,43,45,47,-1,-1,49,51,53,55,57,59,61,63,65,67,69,71,73,75,77,79,81,83,85,87,-1,-1,89,91,-1,93,95,97,99,101,-1,-1,-1,-1,-1,-1,-1,-1,-1,-1,-1,-1,-1,-1,-1,-1,-1,-1,-1,-1,-1,-1,-1,-1,-1,-1,-1,-1,-1,-1,-1,-1,-1,-1,-1,-1,-1,-1,-1,-1,-1,-1,-1,-1,-1,-1],"loss_changes":[2.5851123E2,1.2283423E2,3.039093E1,7.216528E1,4.648526E1,2.3156399E1,3.1594732E1,5.6005005E1,5.3888E1,3.8122284E1,4.898212E1,2.2138844E1,2.6877155E0,2.8910248E1,2.5132202E1,4.922467E1,4.6851562E1,2.2851963E1,3.3943176E1,3.0668457E1,2.1322037E1,0E0,3.75868E1,2.0171165E1,1.547814E1,0E0,0E0,2.1099745E1,3.025571E1,2.7331184E1,3.3162888E1,4.621776E1,2.7120695E1,3.3265503E1,2.4890118E1,1.7077095E1,3.9580875E1,2.597705E1,3.4865814E1,2.1668823E1,4.3693237E1,1.1320286E1,1.3685342E1,3.220778E1,3.210309E1,2.4397644E1,2.0948334E1,0E0,0E0,1.9958656E1,6.1257286E0,0E0,7.464226E0,2.475013E1,1.930334E1,4.4874294E1,2.6918995E1,0E0,0E0,0E0,0E0,0E0,0E0,0E0,0E0,0E0,0E0,0E0,0E0,0E0,0E0,0E0,0E0,0E0,0E0,0E0,0E0,0E0,0E0,0E0,0E0,0E0,0E0,0E0,0E0,0E0,0E0,0E0,0E0,0E0,0E0,0E0,0E0,0E0,0E0,0E0,0E0,0E0,0E0,0E0,0E0,0E0,0E0],"parents":[2147483647,0,0,1,1,2,2,3,3,4,4,5,5,6,6,7,7,8,8,9,9,10,10,11,11,12,12,13,13,14,14,15,15,16,16,17,17,18,18,19,19,20,20,22,22,23,23,24,24,27,27,28,28,29,29,30,30,31,31,32,32,33,33,34,34,35,35,36,36,37,37,38,38,39,39,40,40,41,41,42,42,43,43,44,44,45,45,46,46,49,49,50,50,52,52,53,53,54,54,55,55,56,56],"right_children":[2,4,6,8,10,12,14,16,18,20,22,24,26,28,30,32,34,36,38,40,42,-1,44,46,48,-1,-1,50,52,54,56,58,60,62,64,66,68,70,72,74,76,78,80,82,84,86,88,-1,-1,90,92,-1,94,96,98,100,102,-1,-1,-1,-1,-1,-1,-1,-1,-1,-1,-1,-1,-1,-1,-1,-1,-1,-1,-1,-1,-1,-1,-1,-1,-1,-1,-1,-1,-1,-1,-1,-1,-1,-1,-1,-1,-1,-1,-1,-1,-1,-1,-1,-1,-1,-1],"split_conditions":[1.680019E0,6.0142654E-1,-1E0,1.8385416E-1,-1.71875E-1,1.1840708E0,-1.5794872E0,-2.3333333E0,-5.135909E-1,2.309859E0,-9.9046254E-1,2.728484E0,-1.4878155E0,7.093596E-1,-6.7183465E-2,-6.1260307E-1,1.3943661E0,3.6011842E-1,2.645995E0,1.3177083E-1,-1.3137511E0,-3.1148726E-1,-1.0989639E0,-5.572917E-1,-5.2083335E-3,1.2878706E-1,8.846395E-1,-3.0835485E-1,-5.239044E-1,1.5882353E0,-1E0,-2.5885418E-1,7.794872E-1,1.5865633E0,8.464792E-1,1.2546391E0,-1.4769231E0,0E0,1.6410257E-1,-4.9479166E-1,-7.2566375E-2,2.0588236E0,-4.4067797E-1,2.3329163E0,6.134969E-3,-9.9292034E-1,2.1666667E0,-1.7321481E-1,1.0476825E0,7.7091634E-1,-8.104615E-1,-1.7681108E-1,-1.6455913E-1,1.02670625E-1,-7.982301E-1,6E-1,-7.5364584E-1,-4.777836E-2,1.4459373E0,-1.8144774E-1,5.2034575E-1,-2.303446E-1,9.6074544E-2,-1.3380077E-1,1.7004594E-1,-9.6714936E-2,3.688983E-1,8.2707286E-1,4.5108758E-2,-2.1147749E-1,-1.15597606E-1,8.653833E-1,-1.739285E-1,-8.445628E-2,-2.0770681E-1,1.14555255E-1,-2.3614745E-1,8.9640796E-1,1.8448676E-1,1.51679E-1,-1.3144624E-1,1.2023447E-1,1.0758799E0,-1.492126E-1,-3.2485772E-2,-1.8382113E-1,7.9578185E-1,-2.3403917E-1,6.6389775E-1,-5.940594E-2,8.6287314E-1,3.3759266E-1,-2.1629895E-1,1.8011425E0,3.7826565E-1,-1.4986566E-1,-1.412738E-2,-1.7678681E-1,4.242469E-1,1.09546766E-1,7.426246E-1,4.49347E-1,-1.1077629E-2],"split_indices":[0,27,8,10,11,15,16,9,0,3,0,12,4,20,25,12,3,12,25,10,4,0,12,11,11,0,0,25,7,28,9,10,16,25,12,17,16,17,16,11,15,28,14,18,21,15,9,0,0,7,5,0,22,1,15,15,10,0,0,0,0,0,0,0,0,0,0,0,0,0,0,0,0,0,0,0,0,0,0,0,0,0,0,0,0,0,0,0,0,0,0,0,0,0,0,0,0,0,0,0,0,0,0],"split_type":[0,0,0,0,0,0,0,0,0,0,0,0,0,0,0,0,0,0,0,0,0,0,0,0,0,0,0,0,0,0,0,0,0,0,0,0,0,0,0,0,0,0,0,0,0,0,0,0,0,0,0,0,0,0,0,0,0,0,0,0,0,0,0,0,0,0,0,0,0,0,0,0,0,0,0,0,0,0,0,0,0,0,0,0,0,0,0,0,0,0,0,0,0,0,0,0,0,0,0,0,0,0,0],"sum_hessian":[8.853051E3,7.535365E3,1.3176854E3,5.2464E3,2.2889656E3,1.4001608E2,1.1776693E3,3.8773926E3,1.3690071E3,1.1190251E3,1.1699406E3,1.379675E2,2.0485704E0,2.1549652E1,1.1561198E3,3.2781044E1,3.8446116E3,3.0636346E2,1.0626437E3,1.0502632E3,6.876191E1,6.8872284E1,1.1010682E3,1.3551488E2,2.4526243E0,1.0429517E0,1.0056186E0,1.7807356E1,3.7422948E0,5.0531448E2,6.5080524E2,6.618152E0,2.6162891E1,3.5040967E3,3.40515E2,2.0457722E2,1.0178623E2,1.0525732E3,1.0070417E1,9.2043536E2,1.2982785E2,8.665212E0,6.0096703E1,6.1318336E1,1.0397499E3,7.6193986E0,1.27895485E2,1.16749E0,1.2851342E0,7.6383557E0,1.0169001E1,1.1776837E0,2.5646112E0,4.834748E2,2.1839693E1,8.171323E1,5.69092E2,3.040591E0,3.5775611E0,2.0742168E1,5.4207234E0,3.4762747E3,2.7822054E1,3.1507834E2,2.5436653E1,1.981943E2,6.3829207E0,5.211482E0,9.6574745E1,6.06799E2,4.457742E2,4.84827E0,5.222147E0,1.5660435E2,7.63831E2,7.626069E1,5.3567165E1,2.6950967E0,5.970115E0,2.6909575E1,3.3187126E1,5.8930363E1,2.3879726E0,2.961082E2,7.436417E2,4.5278583E0,3.0915403E0,1.2645229E2,1.443192E0,3.2885642E0,4.3497915E0,1.2636496E0,8.905351E0,1.4076781E0,1.1569331E0,2.3393927E2,2.4953552E2,6.094496E0,1.5745198E1,7.0856926E1,1.0856297E1,1.0666721E1,5.584253E2],"tree_param":{"num_deleted":"0","num_feature":"29","num_nodes":"103","size_leaf_vector":"1"}},{"base_weights":[-4.0648356E-1,-4.8823088E-1,-1.05101325E-1,-5.343513E-1,-1.420197E-1,-1.1859563E-1,1.0610285E0,-3.725775E-1,-6.192698E-1,-1.8163747E-1,1.1372356E0,-3.9363512E-1,-5.9838586E-2,1.1073024E0,2.734723E-1,-3.092025E-1,-2.794703E-1,-6.710809E-1,-2.9442057E-1,-3.9369735E-1,4.6494577E-2,2.1091588E0,-7.240446E-1,1.8232293E-1,-5.9859896E-1,-1.9848306E-1,8.854382E-2,1.2454576E0,-3.6556664E-1,1.3533686E-1,-3.577717E-1,-7.142699E-1,-3.3227316E-1,8.612203E-1,-4.2167804E-1,2.4723917E-1,-5.472516E-1,1.6599873E0,4.0257648E-3,2.6388373E0,-2.1530953E-1,-2.8484976E-1,1.2139209E-1,-2.5835526E-1,1.1259447E0,1.169419E0,-6.4370817E-1,1.1254232E0,-2.4051417E-1,6.1116055E-2,2.3977702E0,1.0028745E0,-8.36365E-1,-4.6244938E-2,2.0354867E-1,-1.1456123E-1,2.99875E-1,-2.2245778E-1,-5.6078702E-2,2.4381573E-1,-1.3164657E-1,2.5429608E-2,6.3650596E-1,5.743294E-1,-1.3641697E-1,2.9109925E-1,-9.664885E-2,1.3049763E-1,-1.876633E-1,-4.9874257E-2,1.4334185E-1,-1.8994607E-1,9.13866E-1,8.845648E-1,-1.1316197E-1,1.0738522E0,9.8571956E-2,-2.0242108E-1,6.29758E-1,1.9855207E-1,-2.1328445E-1,9.587507E-1,-2.3156023E-1,6.8708524E-2,-1.0000075E-1,1.5280604E-1,-2.3147816E-2,1.3783789E0,-1.9815978E-1,-2.0995973E-1,7.3564065E-1,-3.01185E-1,9.481441E-2],"categories":[],"categories_nodes":[],"categories_segments":[],"categories_sizes":[],"default_left":[0,0,0,0,0,0,0,0,0,0,0,0,0,0,0,0,0,0,0,0,0,0,0,0,0,0,0,0,0,0,0,0,0,0,0,0,0,0,0,0,0,0,0,0,0,0,0,0,0,0,0,0,0,0,0,0,0,0,0,0,0,0,0,0,0,0,0,0,0,0,0,0,0,0,0,0,0,0,0,0,0,0,0,0,0,0,0,0,0,0,0,0,0],"id":6,"left_children":[1,3,5,7,9,11,13,15,17,19,21,23,25,-1,27,-1,29,31,33,35,37,39,41,43,45,47,49,-1,51,53,55,57,59,61,63,65,67,-1,69,71,-1,-1,-1,73,75,77,79,81,83,85,87,89,91,-1,-1,-1,-1,-1,-1,-1,-1,-1,-1,-1,-1,-1,-1,-1,-1,-1,-1,-1,-1,-1,-1,-1,-1,-1,-1,-1,-1,-1,-1,-1,-1,-1,-1,-1,-1,-1,-1,-1,-1],"loss_changes":[1.9122339E2,9.743494E1,2.6212921E1,7.379602E1,3.6659157E1,2.6475147E1,3.8478615E1,1.1352319E2,5.9251953E1,3.381054E1,4.0861427E1,3.4161415E1,2.7836914E1,0E0,4.0553177E1,0E0,5.2944733E1,4.4327393E1,7.207864E1,3.5773827E1,7.859721E1,2.366494E1,2.4717178E0,3.2092E1,1.77387E1,3.918785E1,4.1268517E1,0E0,1.0143226E1,4.0880974E1,4.520398E1,3.867395E1,4.259248E1,4.7483704E1,3.4833206E1,2.9411844E1,2.2761223E1,0E0,2.7169655E1,1.8536354E1,0E0,0E0,0E0,2.1291428E1,4.681803E1,1.1110671E1,1.8758385E1,8.7694855E1,2.9655884E1,4.0155113E1,5.442633E1,1.1960981E1,2.497808E0,0E0,0E0,0E0,0E0,0E0,0E0,0E0,0E0,0E0,0E0,0E0,0E0,0E0,0E0,0E0,0E0,0E0,0E0,0E0,0E0,0E0,0E0,0E0,0E0,0E0,0E0,0E0,0E0,0E0,0E0,0E0,0E0,0E0,0E0,0E0,0E0,0E0,0E0,0E0,0E0],"parents":[2147483647,0,0,1,1,2,2,3,3,4,4,5,5,6,6,7,7,8,8,9,9,10,10,11,11,12,12,14,14,16,16,17,17,18,18,19,19,20,20,21,21,22,22,23,23,24,24,25,25,26,26,28,28,29,29,30,30,31,31,32,32,33,33,34,34,35,35,36,36,38,38,39,39,43,43,44,44,45,45,46,46,47,47,48,48,49,49,50,50,51,51,52,52],"right_children":[2,4,6,8,10,12,14,16,18,20,22,24,26,-1,28,-1,30,32,34,36,38,40,42,44,46,48,50,-1,52,54,56,58,60,62,64,66,68,-1,70,72,-1,-1,-1,74,76,78,80,82,84,86,88,90,92,-1,-1,-1,-1,-1,-1,-1,-1,-1,-1,-1,-1,-1,-1,-1,-1,-1,-1,-1,-1,-1,-1,-1,-1,-1,-1,-1,-1,-1,-1,-1,-1,-1,-1,-1,-1,-1,-1,-1,-1],"split_conditions":[1.2031474E0,6.315789E-1,2.3329163E0,-5.135909E-1,1.980531E0,-4.3608248E-1,-1.6666667E-1,-9.9046254E-1,1.2112676E0,1.7525773E-2,2.601206E-1,-7.562446E-1,3.1583214E0,1.1073024E0,-1.05E0,-3.092025E-1,-1.0563381E0,1.3296875E0,-5.185567E-1,-8E-1,-9.359375E-1,2.8564103E0,4.7058824E-1,-3.6460176E-1,-2.3333333E0,-1.4576272E0,1.8820512E0,1.2454576E0,-1.2296405E0,2.2136499E-1,1.6666666E0,9.9690723E-1,-7.894737E-1,-4.1510418E-1,-6.458333E-1,-3.2035398E-1,-6.216495E-1,1.6599873E0,9.3353117E-1,-1.4473684E0,-2.1530953E-1,-2.8484976E-1,1.2139209E-1,-1.1201099E0,-7.350516E-1,8.8697916E-1,-1.0030928E0,1E0,-2.4020618E-1,-1.6666667E-1,5.1392514E-1,2.729137E0,6.394049E-1,-4.6244938E-2,2.0354867E-1,-1.1456123E-1,2.99875E-1,-2.2245778E-1,-5.6078702E-2,2.4381573E-1,-1.3164657E-1,2.5429608E-2,6.3650596E-1,5.743294E-1,-1.3641697E-1,2.9109925E-1,-9.664885E-2,1.3049763E-1,-1.876633E-1,-4.9874257E-2,1.4334185E-1,-1.8994607E-1,9.13866E-1,8.845648E-1,-1.1316197E-1,1.0738522E0,9.8571956E-2,-2.0242108E-1,6.29758E-1,1.9855207E-1,-2.1328445E-1,9.587507E-1,-2.3156023E-1,6.8708524E-2,-1.0000075E-1,1.5280604E-1,-2.3147816E-2,1.3783789E0,-1.9815978E-1,-2.0995973E-1,7.3564065E-1,-3.01185E-1,9.481441E-2],"split_indices":[0,8,18,0,15,17,9,0,3,17,25,25,0,0,26,0,3,10,17,28,10,16,28,15,9,14,16,0,20,1,9,17,13,10,11,15,17,0,1,13,0,0,0,12,17,10,17,19,17,9,4,0,27,0,0,0,0,0,0,0,0,0,0,0,0,0,0,0,0,0,0,0,0,0,0,0,0,0,0,0,0,0,0,0,0,0,0,0,0,0,0,0,0],"split_type":[0,0,0,0,0,0,0,0,0,0,0,0,0,0,0,0,0,0,0,0,0,0,0,0,0,0,0,0,0,0,0,0,0,0,0,0,0,0,0,0,0,0,0,0,0,0,0,0,0,0,0,0,0,0,0,0,0,0,0,0,0,0,0,0,0,0,0,0,0,0,0,0,0,0,0,0,0,0,0,0,0,0,0,0,0,0,0,0,0,0,0,0,0],"sum_hessian":[7.7626553E3,6.1058706E3,1.6567845E3,5.387618E3,7.1825256E2,1.6387198E3,1.8064758E1,1.8564265E3,3.5311914E3,6.9750916E2,2.0743416E1,2.8745493E2,1.3512649E3,3.3133705E0,1.4751389E1,2.2884459E2,1.6275819E3,3.044543E3,4.866484E2,3.6111206E2,3.363971E2,1.353995E1,7.203465E0,7.5475555E1,2.1197939E2,6.9837994E2,6.528849E2,1.3092992E0,1.3442089E1,2.583304E2,1.3692516E3,2.6993406E3,3.4520245E2,4.770111E1,4.389473E2,6.967557E1,2.914365E2,1.5907289E0,3.3480637E2,1.1459292E1,2.0806584E0,6.136464E0,1.0670007E0,5.1943687E1,2.3531866E1,4.6537914E0,2.0732559E2,2.0696619E1,6.7768335E2,6.462357E2,6.649179E0,3.15154E0,1.0290549E1,1.6898361E2,8.93468E1,1.3460715E3,2.3180061E1,2.5662937E3,1.3304683E2,2.8824244E1,3.163782E2,3.0178326E1,1.7522785E1,5.328358E0,4.3361893E2,3.0385044E1,3.929052E1,2.1178585E1,2.702579E2,2.467686E2,8.803775E1,1.2074181E0,1.0251874E1,1.0054489E0,5.093824E1,4.9159737E0,1.8615892E1,1.6518127E0,3.0019789E0,9.721785E0,1.976038E2,9.569507E0,1.1127113E1,1.1161357E2,5.6606976E2,1.5172293E2,4.945128E2,3.57725E0,3.071929E0,1.6868011E0,1.4647391E0,9.096548E0,1.1940013E0],"tree_param":{"num_deleted":"0","num_feature":"29","num_nodes":"93","size_leaf_vector":"1"}},{"base_weights":[-3.3286688E-1,-4.0952873E-1,-8.576473E-2,-5.067029E-1,-2.3510101E-1,-1.2236735E-1,3.1936848E-1,-5.747704E-1,-2.4126212E-1,-1.2235245E-1,-4.166126E-1,-2.7976906E-1,-2.913884E-2,2.2566879E-1,1.6562178E0,-4.0451926E-1,-6.9363326E-1,-3.188792E-2,-4.8213348E-1,-3.5806E-1,3.1526974E-1,-4.4366062E-1,8.967954E-1,-5.776988E-1,-1.4558113E-1,-6.599735E-2,6.0947555E-1,5.7175297E-2,7.6601666E-1,-1.5301254E-1,2.5416756E0,-5.62669E-1,1.09845184E-1,1.5610555E0,-7.002925E-1,-5.8252084E-1,1.2130822E-1,-5.0387657E-1,7.8598875E-1,7.991043E-1,-4.1659382E-1,-3.452824E-1,5.1459473E-1,3.5129318E-1,-4.8607785E-1,2.1897783E0,-2.004924E-2,-6.400075E-1,9.997198E-1,1.6876166E0,-1.7263295E-1,1.6586347E-2,-2.8422633E-1,1.2049687E0,-9.28027E-3,-1.591003E-2,1.6349171E0,2.061377E0,4.0937465E-1,-2.2831397E-1,2.3246548E-1,2.629626E-1,9.0643525E-1,-1.8102556E-1,1.1838196E-1,-3.5738856E-2,2.7904552E-1,-1.2429033E-1,1.0233425E0,-2.2213997E-1,-9.903151E-2,-1.9400188E-1,4.5842823E-1,3.4183136E-1,1.247832E-3,-1.9828129E-1,-1.2440838E-2,9.0736336E-1,4.2581785E-2,-1.3673274E-1,1.7711961E-1,1.2384183E-1,-1.7194496E-1,6.3270235E-1,1.07130684E-1,-1.6009092E-1,3.4870985E-1,2.4666471E-2,-1.5710776E-1,1.307184E0,1.5818477E-1,-2.4365523E-1,5.366554E-1,-1.1962977E-1,-2.4318278E-1,-2.1684545E-1,5.762171E-1,-2.252641E-1,1.0430936E0,2.205951E-1,-6.722689E-2,-1.5024772E-1,2.649494E-2,7.262409E-2,-1.2805237E-1,1.3802038E-1,8.966362E-1,-2.0000957E-1,3.3002025E-1,-2.6949069E-2,4.2218053E-1,-6.547681E-2,7.026096E-1,7.9080445E-1,1.0706501E-1,3.898689E-1,-1.9143581E-2],"categories":[],"categories_nodes":[],"categories_segments":[],"categories_sizes":[],"default_left":[0,0,0,0,0,0,0,0,0,0,0,0,0,0,0,0,0,0,0,0,0,0,0,0,0,0,0,0,0,0,0,0,0,0,0,0,0,0,0,0,0,0,0,0,0,0,0,0,0,0,0,0,0,0,0,0,0,0,0,0,0,0,0,0,0,0,0,0,0,0,0,0,0,0,0,0,0,0,0,0,0,0,0,0,0,0,0,0,0,0,0,0,0,0,0,0,0,0,0,0,0,0,0,0,0,0,0,0,0,0,0,0,0,0,0,0,0],"id":7,"left_children":[1,3,5,7,9,11,13,15,17,19,21,23,25,27,29,31,33,35,37,39,41,43,45,47,49,51,53,55,57,59,61,63,65,67,69,71,73,75,-1,77,79,81,83,85,87,89,91,93,95,97,99,101,103,105,107,109,111,113,115,-1,-1,-1,-1,-1,-1,-1,-1,-1,-1,-1,-1,-1,-1,-1,-1,-1,-1,-1,-1,-1,-1,-1,-1,-1,-1,-1,-1,-1,-1,-1,-1,-1,-1,-1,-1,-1,-1,-1,-1,-1,-1,-1,-1,-1,-1,-1,-1,-1,-1,-1,-1,-1,-1,-1,-1,-1,-1],"loss_changes":[1.3171674E2,8.984985E1,2.4478718E1,6.1436646E1,3.8852356E1,2.2183308E1,1.6767195E1,5.4595154E1,3.5150024E1,1.21212036E2,2.6258423E1,2.2400265E1,2.2421782E1,1.1704229E1,1.4494778E1,9.0947266E1,2.5048218E1,3.1627821E1,2.3185822E1,5.2046906E1,5.4358364E1,2.424437E1,1.7849287E1,1.7772358E1,1.9587261E1,1.6222334E1,1.916506E1,1.1492863E1,1.3288717E1,2.7542746E0,2.1198502E0,3.3578247E1,4.9617817E1,1.9715332E1,2.3423462E1,1.2036758E1,3.500187E1,2.3413559E1,0E0,5.3834152E1,2.8968987E1,1.6817928E1,7.872692E1,2.6993662E1,1.4540283E1,2.0190546E1,1.5465241E1,6.6032486E0,1.2515863E1,2.7704824E1,1.8121532E1,2.4308252E1,1.8650557E1,3.383339E1,2.0049706E1,1.0229104E1,6.2929516E0,5.2851334E0,1.0712528E1,0E0,0E0,0E0,0E0,0E0,0E0,0E0,0E0,0E0,0E0,0E0,0E0,0E0,0E0,0E0,0E0,0E0,0E0,0E0,0E0,0E0,0E0,0E0,0E0,0E0,0E0,0E0,0E0,0E0,0E0,0E0,0E0,0E0,0E0,0E0,0E0,0E0,0E0,0E0,0E0,0E0,0E0,0E0,0E0,0E0,0E0,0E0,0E0,0E0,0E0,0E0,0E0,0E0,0E0,0E0,0E0,0E0,0E0],"parents":[2147483647,0,0,1,1,2,2,3,3,4,4,5,5,6,6,7,7,8,8,9,9,10,10,11,11,12,12,13,13,14,14,15,15,16,16,17,17,18,18,19,19,20,20,21,21,22,22,23,23,24,24,25,25,26,26,27,27,28,28,29,29,30,30,31,31,32,32,33,33,34,34,35,35,36,36,37,37,39,39,40,40,41,41,42,42,43,43,44,44,45,45,46,46,47,47,48,48,49,49,50,50,51,51,52,52,53,53,54,54,55,55,56,56,57,57,58,58],"right_children":[2,4,6,8,10,12,14,16,18,20,22,24,26,28,30,32,34,36,38,40,42,44,46,48,50,52,54,56,58,60,62,64,66,68,70,72,74,76,-1,78,80,82,84,86,88,90,92,94,96,98,100,102,104,106,108,110,112,114,116,-1,-1,-1,-1,-1,-1,-1,-1,-1,-1,-1,-1,-1,-1,-1,-1,-1,-1,-1,-1,-1,-1,-1,-1,-1,-1,-1,-1,-1,-1,-1,-1,-1,-1,-1,-1,-1,-1,-1,-1,-1,-1,-1,-1,-1,-1,-1,-1,-1,-1,-1,-1,-1,-1,-1,-1,-1,-1],"split_conditions":[1.1554602E0,4.587537E-1,1.887324E0,1.3020833E-1,6.9495246E-2,-1.8856394E-1,1.3157895E0,-4.2092308E-1,-3.671912E-2,0E0,2.1824741E0,1.966142E0,2.4210527E0,7.0901126E-1,-1.0556946E0,0E0,-1.0030928E0,-1.1047746E0,3.5E0,-6.113402E-1,-6.548953E-1,-1.3419466E0,-2.974359E-1,1.5352113E0,-8.578125E-1,3.0508474E-1,1.8385416E-1,1.4608247E0,-3.9056882E-1,-1.4742269E-1,-7.3448277E-1,1.4705882E0,1.0526316E-1,-1.347181E-1,8.333333E-1,2.3329163E0,-9.2105263E-1,1.0526316E-1,7.8598875E-1,-8.6635655E-1,1.8010309E0,-4.978467E-1,-3.3333334E-1,0E0,-1.7689655E0,2.645995E0,1.0526316E0,1E0,-3.125E-1,-4.9479166E-1,-1.374359E0,-1E0,-7.982301E-1,-1.2864584E-1,6.0195518E0,8.403911E0,-1.8793103E-1,1.3092162E-1,1.0075094E0,-2.2831397E-1,2.3246548E-1,2.629626E-1,9.0643525E-1,-1.8102556E-1,1.1838196E-1,-3.5738856E-2,2.7904552E-1,-1.2429033E-1,1.0233425E0,-2.2213997E-1,-9.903151E-2,-1.9400188E-1,4.5842823E-1,3.4183136E-1,1.247832E-3,-1.9828129E-1,-1.2440838E-2,9.0736336E-1,4.2581785E-2,-1.3673274E-1,1.7711961E-1,1.2384183E-1,-1.7194496E-1,6.3270235E-1,1.07130684E-1,-1.6009092E-1,3.4870985E-1,2.4666471E-2,-1.5710776E-1,1.307184E0,1.5818477E-1,-2.4365523E-1,5.366554E-1,-1.1962977E-1,-2.4318278E-1,-2.1684545E-1,5.762171E-1,-2.252641E-1,1.0430936E0,2.205951E-1,-6.722689E-2,-1.5024772E-1,2.649494E-2,7.262409E-2,-1.2805237E-1,1.3802038E-1,8.966362E-1,-2.0000957E-1,3.3002025E-1,-2.6949069E-2,4.2218053E-1,-6.547681E-2,7.026096E-1,7.9080445E-1,1.0706501E-1,3.898689E-1,-1.9143581E-2],"split_indices":[0,1,3,11,6,20,8,5,0,6,17,0,8,18,18,6,17,20,9,17,12,25,16,3,10,14,10,17,12,17,2,18,8,1,9,18,13,8,0,12,17,25,9,3,2,25,8,19,11,11,16,8,15,10,0,0,26,25,18,0,0,0,0,0,0,0,0,0,0,0,0,0,0,0,0,0,0,0,0,0,0,0,0,0,0,0,0,0,0,0,0,0,0,0,0,0,0,0,0,0,0,0,0,0,0,0,0,0,0,0,0,0,0,0,0,0,0],"split_type":[0,0,0,0,0,0,0,0,0,0,0,0,0,0,0,0,0,0,0,0,0,0,0,0,0,0,0,0,0,0,0,0,0,0,0,0,0,0,0,0,0,0,0,0,0,0,0,0,0,0,0,0,0,0,0,0,0,0,0,0,0,0,0,0,0,0,0,0,0,0,0,0,0,0,0,0,0,0,0,0,0,0,0,0,0,0,0,0,0,0,0,0,0,0,0,0,0,0,0,0,0,0,0,0,0,0,0,0,0,0,0,0,0,0,0,0,0],"sum_hessian":[6.9540557E3,5.3069507E3,1.6471047E3,3.406998E3,1.8999529E3,1.5112644E3,1.3584042E2,2.710718E3,6.962801E2,1.1730006E3,7.269523E2,5.614103E2,9.4985406E2,1.2803525E2,7.8051753E0,1.1162625E3,1.5944556E3,3.7310016E2,3.2317993E2,7.624951E2,4.1050543E2,7.129325E2,1.40197525E1,1.7331151E2,3.8809875E2,8.9887115E2,5.0982925E1,9.844388E1,2.9591362E1,2.8365428E0,4.968632E0,8.5368823E2,2.6257425E2,4.0079885E0,1.5904475E3,8.059937E1,2.925008E2,3.217622E2,1.4177167E0,3.610369E1,7.263915E2,9.498804E1,3.155174E2,3.574491E1,6.771876E2,5.240681E0,8.779071E0,1.6729745E2,6.0140452E0,4.751088E0,3.8334766E2,6.5276965E2,2.4610152E2,2.5497053E1,2.5485872E1,9.503167E1,3.4122114E0,5.3564014E0,2.423496E1,1.8222636E0,1.0142794E0,1.743731E0,3.2249014E0,8.191865E2,3.4501675E1,2.059434E2,5.6630844E1,2.3136952E0,1.6942933E0,1.4338418E3,1.5660571E2,7.8894966E1,1.7044009E0,2.928253E1,2.6321826E2,2.3986159E2,8.190062E1,7.409514E0,2.869418E1,6.997131E2,2.6678349E1,2.1765417E1,7.322262E1,2.7250385E1,2.8826703E2,1.7257738E1,1.8487173E1,4.1965664E1,6.352219E2,1.5712351E0,3.6694462E0,6.4886403E0,2.2904308E0,7.068368E1,9.661378E1,2.1702492E0,3.8437963E0,2.2564368E0,2.494651E0,1.9847616E1,3.6350006E2,7.874865E1,5.74021E2,5.2320442E1,1.9378107E2,1.8873587E1,6.6234665E0,1.6253056E1,9.232818E0,9.123004E1,3.8016279E0,1.1333427E0,2.2788687E0,3.5971737E0,1.7592276E0,7.805104E0,1.6429857E1],"tree_param":{"num_deleted":"0","num_feature":"29","num_nodes":"117","size_leaf_vector":"1"}},{"base_weights":[-2.6775172E-1,-3.3619663E-1,-1.830038E-2,-4.0933058E-1,-1.3792731E-1,6.280851E-2,-3.53894E-1,-5.595612E-1,-2.938019E-1,-1.5367724E-1,1.2951287E0,-2.4438857E-1,1.7614046E-1,-3.8226777E-1,6.8517816E-1,-1.0101679E-1,-6.357824E-1,-3.0442357E-1,-2.4337165E-1,-2.0756103E-1,1.265161E-1,3.503101E0,-2.7556026E-1,2.0993683E0,-3.1883526E-1,1.4259663E-2,4.5137808E-1,-5.125696E-1,-2.0397607E-2,1.5451407E0,-1.9174634E-1,-6.6555023E-1,2.4644841E-1,-3.6129393E-2,-3.7790418E-1,-2.5454643E-1,1.8380281E-1,6.1684333E-2,1.4870317E0,-1.6978721E-1,1.3696189E0,9.194657E-1,-2.7379575E-1,-3.4793863E-1,3.4449503E0,-4.6074688E-1,4.1642284E-1,-6.516907E-2,6.829047E-1,2.8053105E-1,1.3285623E0,-1.5150636E-3,-6.719512E-1,8.950948E-1,-2.4865311E-1,1.5961831E0,-2.5494002E-2,3.6887044E-1,-9.225788E-2,-2.1410996E-1,-8.7914824E-2,-1.2584649E-1,4.1094038E-1,3.8696262E-1,-2.4706243E-2,8.169385E-3,-1.4804171E-1,-1.0939643E-1,-1.8327145E-2,-6.1878312E-2,2.91188E-1,-1.10569E-2,2.2017242E-1,-2.3434788E-1,8.600554E-1,2.3644725E-2,3.7641805E-1,-2.2428353E-1,1.3933347E-1,1.248058E0,-1.6083015E-2,3.3264983E-2,-1.8843597E-1,-6.282191E-2,3.798259E-1,9.224768E-2,-5.5830795E-2,5.7568584E-2,5.890916E-1,-6.545325E-2,1.7614011E-1,2.9029846E-1,1.0441091E0,-1.3371536E-1,3.9791825E-1,-1.1358134E-1,-2.3190098E-1,-2.5771955E-1,6.189538E-1,-1.5724503E-1,2.637378E-1],"categories":[],"categories_nodes":[],"categories_segments":[],"categories_sizes":[],"default_left":[0,0,0,0,0,0,0,0,0,0,0,0,0,0,0,0,0,0,0,0,0,0,0,0,0,0,0,0,0,0,0,0,0,0,0,0,0,0,0,0,0,0,0,0,0,0,0,0,0,0,0,0,0,0,0,0,0,0,0,0,0,0,0,0,0,0,0,0,0,0,0,0,0,0,0,0,0,0,0,0,0,0,0,0,0,0,0,0,0,0,0,0,0,0,0,0,0,0,0,0,0],"id":8,"left_children":[1,3,5,7,9,11,13,15,17,19,21,23,25,27,-1,29,31,-1,33,35,37,39,41,43,45,47,49,51,53,55,57,59,61,63,65,67,69,71,73,-1,-1,75,-1,77,79,81,83,85,87,89,91,93,95,97,99,-1,-1,-1,-1,-1,-1,-1,-1,-1,-1,-1,-1,-1,-1,-1,-1,-1,-1,-1,-1,-1,-1,-1,-1,-1,-1,-1,-1,-1,-1,-1,-1,-1,-1,-1,-1,-1,-1,-1,-1,-1,-1,-1,-1,-1,-1],"loss_changes":[1.0844675E2,7.221796E1,3.7277504E1,6.3024048E1,3.0547958E1,3.844887E1,2.0823673E1,5.5212738E1,7.465547E1,2.012005E1,5.2026848E1,5.2615517E1,3.592421E1,1.2465069E1,0E0,3.414204E1,3.577411E1,0E0,5.3707115E1,2.057957E1,1.8897348E1,2.9353645E1,8.095034E0,3.1814716E1,3.0389832E1,2.7067045E1,4.437892E1,1.5840771E1,1.5077633E1,7.398536E1,3.5867844E1,2.3322021E1,3.4229565E1,4.6662266E1,5.4711746E1,2.1222374E1,3.7111736E1,1.37082405E1,3.2750572E1,0E0,0E0,9.755256E-1,0E0,1.7130475E0,1.5463661E1,2.332515E1,2.5442003E1,2.0594183E1,3.3651047E1,3.8538345E1,3.422796E1,2.845516E1,4.102028E0,3.1287052E1,1.8383198E1,0E0,0E0,0E0,0E0,0E0,0E0,0E0,0E0,0E0,0E0,0E0,0E0,0E0,0E0,0E0,0E0,0E0,0E0,0E0,0E0,0E0,0E0,0E0,0E0,0E0,0E0,0E0,0E0,0E0,0E0,0E0,0E0,0E0,0E0,0E0,0E0,0E0,0E0,0E0,0E0,0E0,0E0,0E0,0E0,0E0,0E0],"parents":[2147483647,0,0,1,1,2,2,3,3,4,4,5,5,6,6,7,7,8,8,9,9,10,10,11,11,12,12,13,13,15,15,16,16,18,18,19,19,20,20,21,21,22,22,23,23,24,24,25,25,26,26,27,27,28,28,29,29,30,30,31,31,32,32,33,33,34,34,35,35,36,36,37,37,38,38,41,41,43,43,44,44,45,45,46,46,47,47,48,48,49,49,50,50,51,51,52,52,53,53,54,54],"right_children":[2,4,6,8,10,12,14,16,18,20,22,24,26,28,-1,30,32,-1,34,36,38,40,42,44,46,48,50,52,54,56,58,60,62,64,66,68,70,72,74,-1,-1,76,-1,78,80,82,84,86,88,90,92,94,96,98,100,-1,-1,-1,-1,-1,-1,-1,-1,-1,-1,-1,-1,-1,-1,-1,-1,-1,-1,-1,-1,-1,-1,-1,-1,-1,-1,-1,-1,-1,-1,-1,-1,-1,-1,-1,-1,-1,-1,-1,-1,-1,-1,-1,-1,-1,-1],"split_conditions":[9.7011954E-1,8.6933714E-1,1.0187734E0,-7.65625E-2,2.3329163E0,-4.671875E-1,2.4713845E0,-9.491525E-1,-9.9046254E-1,1.2112676E0,-3.7345132E-1,-1.6666666E0,3.2941177E-1,1.2776042E0,6.8517816E-1,-1.1666666E0,2.309859E0,-3.0442357E-1,-6.089652E-1,9.0991753E-1,1.2371714E0,-1.0106195E0,-1.0526316E-1,-5.263158E-1,1.5496957E0,1.1666666E0,5.646018E-1,-3.7052932E-1,-1.2588235E0,-6.7011195E-1,-1.270235E0,-1.3020833E-1,1.7216495E-1,-1.3157895E0,-1.6666667E-1,3.3967574E0,5.263158E-1,2.0611277E0,3.3333334E-1,-1.6978721E-1,1.3696189E0,1.680019E0,-2.7379575E-1,2.065737E0,1.3192878E0,-7.894737E-1,2.8556702E-1,-2.4806201E-1,1.2061856E-1,1E0,1.7557623E0,1.0526316E-1,-1.0526316E-1,7.739628E-1,2.3329163E0,1.5961831E0,-2.5494002E-2,3.6887044E-1,-9.225788E-2,-2.1410996E-1,-8.7914824E-2,-1.2584649E-1,4.1094038E-1,3.8696262E-1,-2.4706243E-2,8.169385E-3,-1.4804171E-1,-1.0939643E-1,-1.8327145E-2,-6.1878312E-2,2.91188E-1,-1.10569E-2,2.2017242E-1,-2.3434788E-1,8.600554E-1,2.3644725E-2,3.7641805E-1,-2.2428353E-1,1.3933347E-1,1.248058E0,-1.6083015E-2,3.3264983E-2,-1.8843597E-1,-6.282191E-2,3.798259E-1,9.224768E-2,-5.5830795E-2,5.7568584E-2,5.890916E-1,-6.545325E-2,1.7614011E-1,2.9029846E-1,1.0441091E0,-1.3371536E-1,3.9791825E-1,-1.1358134E-1,-2.3190098E-1,-2.5771955E-1,6.189538E-1,-1.5724503E-1,2.637378E-1],"split_indices":[7,0,18,10,18,10,5,14,0,3,15,9,28,10,0,9,3,0,0,12,18,15,8,13,20,9,15,0,28,25,4,11,17,13,9,0,13,1,9,0,0,0,0,7,1,13,17,25,17,19,12,8,8,0,18,0,0,0,0,0,0,0,0,0,0,0,0,0,0,0,0,0,0,0,0,0,0,0,0,0,0,0,0,0,0,0,0,0,0,0,0,0,0,0,0,0,0,0,0,0,0],"split_type":[0,0,0,0,0,0,0,0,0,0,0,0,0,0,0,0,0,0,0,0,0,0,0,0,0,0,0,0,0,0,0,0,0,0,0,0,0,0,0,0,0,0,0,0,0,0,0,0,0,0,0,0,0,0,0,0,0,0,0,0,0,0,0,0,0,0,0,0,0,0,0,0,0,0,0,0,0,0,0,0,0,0,0,0,0,0,0,0,0,0,0,0,0,0,0,0,0,0,0,0,0],"sum_hessian":[6.3510547E3,4.9833633E3,1.3676917E3,3.6397383E3,1.3436249E3,1.1021326E3,2.6555917E2,1.580566E3,2.059172E3,1.3299014E3,1.3723463E1,2.9671143E2,8.054211E2,2.6357907E2,1.9801111E0,2.2561267E2,1.3549534E3,1.3337282E2,1.9257994E3,1.1156171E3,2.1428433E2,5.193077E0,8.530386E0,8.297175E0,2.8841425E2,5.0780676E2,2.9761432E2,1.9349069E2,7.008837E1,1.0947934E1,2.1466475E2,1.3109651E3,4.3988327E1,7.585501E2,1.1672493E3,9.9634937E2,1.19267685E2,2.0553543E2,8.748908E0,1.1717994E0,4.021278E0,2.8121924E0,5.7181935E0,3.2065725E0,5.0906034E0,2.4206651E2,4.6347733E1,4.5469574E2,5.311104E1,2.5020276E2,4.7411575E1,4.6238194E1,1.472525E2,1.34043665E1,5.6684002E1,2.6187642E0,8.329169E0,1.5444777E1,1.9921997E2,1.1600947E3,1.5087025E2,2.8010153E1,1.5978172E1,2.464612E1,7.33904E2,2.5923615E2,9.080131E2,6.343913E2,3.6195807E2,8.023129E1,3.9036396E1,1.8008247E2,2.5452953E1,3.4732823E0,5.275625E0,1.15391E0,1.6582824E0,2.2026515E0,1.003921E0,4.069519E0,1.0210843E0,5.490083E1,1.8716568E2,2.7123299E1,1.9224434E1,1.1102509E2,3.4367065E2,3.9223362E1,1.3887673E1,9.5368416E1,1.5483435E2,4.1843304E1,5.5682735E0,3.514581E1,1.10923815E1,3.8944904E1,1.083076E2,5.463763E0,7.940603E0,4.598572E1,1.0698282E1],"tree_param":{"num_deleted":"0","num_feature":"29","num_nodes":"101","size_leaf_vector":"1"}},{"base_weights":[-2.1298967E-1,-3.0389744E-1,-1.9585156E-1,-2.7906588E-1,-6.2107574E-2,-3.2359144E-1,2.6505582E-2,2.4287455E-1,-1.0663586E-1,-1.4711629E-1,-4.0341297E-1,1.2852936E0,-3.0738719E-2,8.379598E-2,1.003493E0,-3.530474E-1,-1.1607013E-2,8.3978766E-1,-1.9684185E-1,-4.710414E-1,5.8422983E-2,4.4227526E-1,5.5125794E0,-3.9224172E-1,1.4890783E-1,2.7162167E-1,-3.9965183E-1,3.4924933E-1,2.2248304E0,-3.9361903E-1,1.2008494E0,1.4388077E0,-2.7285483E-2,1.1953375E0,6.404039E-3,1.4002725E-1,-7.186264E-2,5.362558E-1,-1.4501922E-1,-6.905162E-2,8.001941E-2,5.23915E-3,9.5017666E-1,2.478173E0,-1.3534663E-2,5.070562E-1,-1.4068611E-1,2.8720108E-1,1.0515128E-2,4.7874686E-1,6.2740885E-2,-2.1251693E-1,2.2965097E-1,3.8955218E-1,-3.536013E-2,2.0191197E-1,8.868442E-1,-2.520614E-1,-8.8886194E-2,5.0861243E-2,9.303402E-1,1.0547665E0,-8.712514E-2,-3.418123E-2,7.098994E-2],"categories":[],"categories_nodes":[],"categories_segments":[],"categories_sizes":[],"default_left":[0,0,0,0,0,0,0,0,0,0,0,0,0,0,0,0,0,0,0,0,0,0,0,0,0,0,0,0,0,0,0,0,0,0,0,0,0,0,0,0,0,0,0,0,0,0,0,0,0,0,0,0,0,0,0,0,0,0,0,0,0,0,0,0,0],"id":9,"left_children":[1,-1,3,5,7,9,11,13,15,17,19,21,23,25,27,29,31,33,35,37,39,41,43,45,47,49,51,53,55,57,59,61,63,-1,-1,-1,-1,-1,-1,-1,-1,-1,-1,-1,-1,-1,-1,-1,-1,-1,-1,-1,-1,-1,-1,-1,-1,-1,-1,-1,-1,-1,-1,-1,-1],"loss_changes":[8.084448E1,0E0,6.440263E1,4.8552338E1,3.0192894E1,4.38089E1,3.2803814E1,3.4196167E1,4.5401367E1,4.7839382E1,6.698328E1,6.812755E1,2.8366276E1,2.1483738E1,3.8307007E1,3.449386E1,3.1885221E1,1.2033876E2,2.6341675E1,5.3050385E1,1.6575981E1,2.0314186E1,4.9321983E1,2.3952497E1,2.6835592E1,1.3743262E1,2.4381618E1,1.480224E1,1.7161804E1,2.2643486E1,2.6868433E1,5.4878395E1,3.1733221E1,0E0,0E0,0E0,0E0,0E0,0E0,0E0,0E0,0E0,0E0,0E0,0E0,0E0,0E0,0E0,0E0,0E0,0E0,0E0,0E0,0E0,0E0,0E0,0E0,0E0,0E0,0E0,0E0,0E0,0E0,0E0,0E0],"parents":[2147483647,0,0,2,2,3,3,4,4,5,5,6,6,7,7,8,8,9,9,10,10,11,11,12,12,13,13,14,14,15,15,16,16,17,17,18,18,19,19,20,20,21,21,22,22,23,23,24,24,25,25,26,26,27,27,28,28,29,29,30,30,31,31,32,32],"right_children":[2,-1,4,6,8,10,12,14,16,18,20,22,24,26,28,30,32,34,36,38,40,42,44,46,48,50,52,54,56,58,60,62,64,-1,-1,-1,-1,-1,-1,-1,-1,-1,-1,-1,-1,-1,-1,-1,-1,-1,-1,-1,-1,-1,-1,-1,-1,-1,-1,-1,-1,-1,-1,-1,-1],"split_conditions":[-9.9046254E-1,-3.0389744E-1,3.7250996E-1,2.1052632E-1,-6.7011195E-1,-1.0526316E-1,-7.5364584E-1,3.3333334E-1,-1.6804124E-1,-6.731959E-1,1.2915361E0,-3.0729166E-1,-1.2864584E-1,5.2628285E-1,-1.948718E-1,3.3609376E0,-6.458333E-1,-9.22403E-1,-1.8598248E0,-1.0030928E0,-1.6145833E-1,7.618947E-1,-2.3958333E-1,-5.78125E-1,0E0,-1.1624022E0,1.3904881E0,-7.394798E-1,-3.3854166E-1,-7.684729E-1,1.1472359E0,2.0171674E-1,1.966142E0,1.1953375E0,6.404039E-3,1.4002725E-1,-7.186264E-2,5.362558E-1,-1.4501922E-1,-6.905162E-2,8.001941E-2,5.23915E-3,9.5017666E-1,2.478173E0,-1.3534663E-2,5.070562E-1,-1.4068611E-1,2.8720108E-1,1.0515128E-2,4.7874686E-1,6.2740885E-2,-2.1251693E-1,2.2965097E-1,3.8955218E-1,-3.536013E-2,2.0191197E-1,8.868442E-1,-2.520614E-1,-8.8886194E-2,5.0861243E-2,9.303402E-1,1.0547665E0,-8.712514E-2,-3.418123E-2,7.098994E-2],"split_indices":[0,0,7,8,25,8,10,9,17,17,20,11,10,18,16,10,11,18,18,17,11,12,11,11,10,12,18,12,11,20,20,0,0,0,0,0,0,0,0,0,0,0,0,0,0,0,0,0,0,0,0,0,0,0,0,0,0,0,0,0,0,0,0,0,0],"split_type":[0,0,0,0,0,0,0,0,0,0,0,0,0,0,0,0,0,0,0,0,0,0,0,0,0,0,0,0,0,0,0,0,0,0,0,0,0,0,0,0,0,0,0,0,0,0,0,0,0,0,0,0,0,0,0,0,0,0,0,0,0,0,0,0,0],"sum_hessian":[5.9099976E3,1.22733444E2,5.787264E3,3.5668904E3,2.2203738E3,3.1131997E3,4.536908E2,2.8231235E2,1.9380615E3,9.7046643E2,2.1427332E3,1.8801334E1,4.3488947E2,2.3439935E2,4.7912987E1,5.3864087E2,1.3994207E3,4.5789665E1,9.2467676E2,1.8690247E3,2.7370853E2,1.6596277E1,2.2050567E0,1.439783E2,2.9091116E2,1.691288E2,6.527055E1,3.2037277E1,1.5875709E1,5.256627E2,1.2978155E1,1.3994775E1,1.3854259E3,8.657369E0,3.7132298E1,5.5302177E1,8.693746E2,9.387616E0,1.8596371E3,1.14698166E2,1.5901036E2,1.5228618E1,1.36766E0,1.150073E0,1.0549836E0,4.3681183E0,1.3961018E2,3.4998783E1,2.5591238E2,6.5153465E0,1.6261345E2,5.190817E1,1.3362389E1,9.978823E0,2.2058456E1,5.700357E0,1.0175351E1,9.269938E1,4.3296335E2,9.118584E0,3.8595715E0,5.8885055E0,8.10627E0,1.0434124E3,3.4201355E2],"tree_param":{"num_deleted":"0","num_feature":"29","num_nodes":"65","size_leaf_vector":"1"}},{"base_weights":[-1.6636261E-1,-3.0149361E-1,-1.5218972E-1,-2.7323446E-1,-6.678851E-2,-3.141578E-1,2.6090303E-1,2.1204941E-2,-2.4064387E-1,-1.1136704E-1,-4.3900874E-1,7.4791527E-1,-7.347891E-2,-6.504728E-2,2.2474618E-1,-3.4209853E-1,6.350489E-3,-2.678103E-1,3.2178393E-1,-5.7618564E-1,-1.1720132E-1,2.1819E0,-2.1737853E-2,-1.646443E-1,1.1718806E0,-1.372416E-1,3.6403403E-1,-2.43511E-1,4.7736967E-1,7.990048E-1,-3.5126013E-1,2.8596394E0,-4.374337E-2,-8.570787E-2,1.105311E0,3.860581E-2,4.821261E-1,1.3709003E-1,-1.8427694E-1,1.491418E-1,-8.8544086E-2,-1.5360822E-1,7.891383E-1,-1.7919782E-1,1.523337E-1,5.683061E-1,-9.0497375E-2,2.6939085E-1,-5.3272072E-2,-1.7417738E-1,2.0248078E-1,-1.7485228E-1,6.1245732E-2,2.67309E-2,2.3493001E-1,-1.9278768E-2,-1.2798285E-1,1.2876391E0,6.513391E-2,-3.1958967E-2,3.5750332E-1],"categories":[],"categories_nodes":[],"categories_segments":[],"categories_sizes":[],"default_left":[0,0,0,0,0,0,0,0,0,0,0,0,0,0,0,0,0,0,0,0,0,0,0,0,0,0,0,0,0,0,0,0,0,0,0,0,0,0,0,0,0,0,0,0,0,0,0,0,0,0,0,0,0,0,0,0,0,0,0,0,0],"id":10,"left_children":[1,-1,3,5,7,9,11,13,15,17,19,21,23,25,27,29,31,33,35,37,39,41,43,45,-1,47,49,51,53,-1,55,57,59,-1,-1,-1,-1,-1,-1,-1,-1,-1,-1,-1,-1,-1,-1,-1,-1,-1,-1,-1,-1,-1,-1,-1,-1,-1,-1,-1,-1],"loss_changes":[6.6158875E1,0E0,5.6709312E1,4.9695984E1,4.924769E1,5.334018E1,2.6447807E1,3.7550735E1,2.710994E1,5.4627426E1,5.7532883E1,7.296344E1,3.583753E1,4.6593277E1,7.5420525E1,2.2049644E1,4.528461E1,4.2882076E1,5.2910774E1,3.625415E1,4.2915245E1,2.9242188E1,1.3708345E1,2.7595066E1,0E0,5.3887505E1,6.4023506E1,3.410756E1,4.9055595E1,0E0,1.6523827E1,1.9760437E1,2.4288086E1,0E0,0E0,0E0,0E0,0E0,0E0,0E0,0E0,0E0,0E0,0E0,0E0,0E0,0E0,0E0,0E0,0E0,0E0,0E0,0E0,0E0,0E0,0E0,0E0,0E0,0E0,0E0,0E0],"parents":[2147483647,0,0,2,2,3,3,4,4,5,5,6,6,7,7,8,8,9,9,10,10,11,11,12,12,13,13,14,14,15,15,16,16,17,17,18,18,19,19,20,20,21,21,22,22,23,23,25,25,26,26,27,27,28,28,30,30,31,31,32,32],"right_children":[2,-1,4,6,8,10,12,14,16,18,20,22,24,26,28,30,32,34,36,38,40,42,44,46,-1,48,50,52,54,-1,56,58,60,-1,-1,-1,-1,-1,-1,-1,-1,-1,-1,-1,-1,-1,-1,-1,-1,-1,-1,-1,-1,-1,-1,-1,-1,-1,-1,-1,-1],"split_conditions":[-9.9046254E-1,-3.0149361E-1,-7.65625E-2,1.6842105E0,6.9495246E-2,-4.4067797E-1,-4.2177722E-1,0E0,3.389723E-1,1.8247423E-1,7.739628E-1,0E0,3.6482759E0,1.1197916E0,0E0,-2.6733418E0,-1.6606374E0,2.21875E0,9.0991753E-1,-1.7689655E0,-6.337492E-1,-7.015625E-1,-5.178416E-2,-5.46875E-1,1.1718806E0,-4.3229166E-1,6.5260416E-1,2.8071216E-1,1E0,7.990048E-1,-7.043395E-1,-9.044248E-1,1.6666666E0,-8.570787E-2,1.105311E0,3.860581E-2,4.821261E-1,1.3709003E-1,-1.8427694E-1,1.491418E-1,-8.8544086E-2,-1.5360822E-1,7.891383E-1,-1.7919782E-1,1.523337E-1,5.683061E-1,-9.0497375E-2,2.6939085E-1,-5.3272072E-2,-1.7417738E-1,2.0248078E-1,-1.7485228E-1,6.1245732E-2,2.67309E-2,2.3493001E-1,-1.9278768E-2,-1.2798285E-1,1.2876391E0,6.513391E-2,-3.1958967E-2,3.5750332E-1],"split_indices":[0,0,10,8,6,14,18,6,12,17,0,9,26,11,17,18,25,11,12,2,12,10,4,11,0,11,10,1,19,0,0,15,9,0,0,0,0,0,0,0,0,0,0,0,0,0,0,0,0,0,0,0,0,0,0,0,0,0,0,0,0],"split_type":[0,0,0,0,0,0,0,0,0,0,0,0,0,0,0,0,0,0,0,0,0,0,0,0,0,0,0,0,0,0,0,0,0,0,0,0,0,0,0,0,0,0,0,0,0,0,0,0,0,0,0,0,0,0,0,0,0,0,0,0,0],"sum_hessian":[5.578167E3,9.1544266E1,5.4866226E3,2.2687603E3,3.2178625E3,2.1076897E3,1.6107039E2,2.137093E3,1.0807694E3,8.038758E2,1.3038141E3,6.506681E1,9.6003586E1,1.5015007E3,6.3559247E2,7.6581885E2,3.1495053E2,5.9085535E2,2.1302045E2,9.1358813E2,3.902259E2,2.2084675E1,4.2982132E1,9.479081E1,1.212775E0,1.285835E3,2.1566577E2,2.2274796E2,4.1284448E2,1.4469316E0,7.643719E2,4.4663563E0,3.1048416E2,5.8911743E2,1.7378892E0,1.861537E2,2.6866741E1,3.2077465E1,8.815107E2,8.724094E1,3.0298495E2,3.132186E0,1.8952488E1,2.0533754E1,2.244838E1,5.1139493E0,8.967686E1,4.742033E1,1.2384146E3,5.318977E1,1.62476E2,1.2653339E2,9.621457E1,1.8244159E2,2.3040291E2,1.5933504E2,6.0503687E2,2.491489E0,1.9748672E0,2.963375E2,1.4146682E1],"tree_param":{"num_deleted":"0","num_feature":"29","num_nodes":"61","size_leaf_vector":"1"}},{"base_weights":[-1.30142E-1,-2.9920927E-1,-1.1872149E-1,1.8932445E-1,-1.4478558E-1,-8.804131E-2,4.7176343E-1,-2.810421E-1,-8.315816E-2,-1.1703889E-1,1.6185777E0,5.16186E-2,7.515996E-1,2.715231E-1,-3.1971082E-1,-1.7809819E-1,8.420762E-5,-2.1021955E-1,4.5096877E-1,9.5913047E-1,-1.8087581E-1,1.135484E0,-1.5126203E-1,9.305983E-1,-4.2804083E-1,1.2876418E0,-2.729423E-3,-4.050773E-1,-4.1377727E-2,-2.3710957E-1,1.9980346E-1,-1.8368971E-1,9.867954E-2,1.2317824E-1,-8.502301E-2,4.115387E-1,-1.3940041E-1,6.332515E-1,-9.0243266E-4,-7.151478E-2,2.4673365E-1,6.534067E-1,2.2151999E-1,-1.9122553E-1,2.2713648E-1,-1.8426114E-1,6.337015E-1,-2.2707298E-2,8.5002196E-1,-3.450524E-2,-1.4517663E-1,-3.4243517E-2,1.6837259E-1,3.500051E-2,-8.826979E-2,1.11334555E-1,-8.305259E-2,-1.00552425E-1,1.12499304E-1,-3.219044E-2,7.665385E-2],"categories":[],"categories_nodes":[],"categories_segments":[],"categories_sizes":[],"default_left":[0,0,0,0,0,0,0,0,0,0,0,0,0,0,0,0,0,0,0,0,0,0,0,0,0,0,0,0,0,0,0,0,0,0,0,0,0,0,0,0,0,0,0,0,0,0,0,0,0,0,0,0,0,0,0,0,0,0,0,0,0],"id":11,"left_children":[1,-1,3,5,7,9,11,13,15,17,19,21,23,25,27,29,31,33,35,-1,-1,37,39,41,43,45,47,49,51,53,55,57,59,-1,-1,-1,-1,-1,-1,-1,-1,-1,-1,-1,-1,-1,-1,-1,-1,-1,-1,-1,-1,-1,-1,-1,-1,-1,-1,-1,-1],"loss_changes":[5.2762177E1,0E0,4.2347824E1,3.2287838E1,4.078975E1,1.050867E1,2.3958172E1,3.2420433E1,2.6460224E1,1.0996213E1,1.4380763E1,1.8350533E1,2.625093E1,2.7734997E1,3.3597916E1,3.4928776E1,3.236018E1,8.187201E0,2.5379475E1,0E0,0E0,1.4610895E1,6.1780972E0,2.3954002E1,4.65532E0,3.4473614E1,1.6636406E1,2.470221E1,1.4674226E1,2.7383987E1,1.739759E1,5.2903114E1,3.757676E1,0E0,0E0,0E0,0E0,0E0,0E0,0E0,0E0,0E0,0E0,0E0,0E0,0E0,0E0,0E0,0E0,0E0,0E0,0E0,0E0,0E0,0E0,0E0,0E0,0E0,0E0,0E0,0E0],"parents":[2147483647,0,0,2,2,3,3,4,4,5,5,6,6,7,7,8,8,9,9,10,10,11,11,12,12,13,13,14,14,15,15,16,16,17,17,18,18,21,21,22,22,23,23,24,24,25,25,26,26,27,27,28,28,29,29,30,30,31,31,32,32],"right_children":[2,-1,4,6,8,10,12,14,16,18,20,22,24,26,28,30,32,34,36,-1,-1,38,40,42,44,46,48,50,52,54,56,58,60,-1,-1,-1,-1,-1,-1,-1,-1,-1,-1,-1,-1,-1,-1,-1,-1,-1,-1,-1,-1,-1,-1,-1,-1,-1,-1,-1,-1],"split_conditions":[-9.9046254E-1,-2.9920927E-1,-1.424138E0,-2.2584857E-1,-3.1002116E-1,3.0102565E0,-2.3197293E-1,-1.6056339E0,-1.71875E-1,1.1842105E0,9.038576E-1,-5.7476926E-1,1.2413793E0,-8.178974E-1,1.3462088E0,3.3967574E0,-2.3279099E-1,-1.2472568E0,-3.165574E-1,9.5913047E-1,-1.8087581E-1,-3.4117648E-1,1.5172414E0,-1.0509621E-1,3.3605578E0,1E0,3.5099602E0,-1.0526316E-1,1.8194082E0,-8.0291814E-1,1.3192878E0,1.4977583E0,-1.4336284E-1,1.2317824E-1,-8.502301E-2,4.115387E-1,-1.3940041E-1,6.332515E-1,-9.0243266E-4,-7.151478E-2,2.4673365E-1,6.534067E-1,2.2151999E-1,-1.9122553E-1,2.2713648E-1,-1.8426114E-1,6.337015E-1,-2.2707298E-2,8.5002196E-1,-3.450524E-2,-1.4517663E-1,-3.4243517E-2,1.6837259E-1,3.500051E-2,-8.826979E-2,1.11334555E-1,-8.305259E-2,-1.00552425E-1,1.12499304E-1,-3.219044E-2,7.665385E-2],"split_indices":[0,0,2,4,27,16,12,3,11,13,1,5,20,18,0,0,18,6,12,0,0,28,24,12,7,19,7,8,4,12,1,27,15,0,0,0,0,0,0,0,0,0,0,0,0,0,0,0,0,0,0,0,0,0,0,0,0,0,0,0,0],"split_type":[0,0,0,0,0,0,0,0,0,0,0,0,0,0,0,0,0,0,0,0,0,0,0,0,0,0,0,0,0,0,0,0,0,0,0,0,0,0,0,0,0,0,0,0,0,0,0,0,0,0,0,0,0,0,0,0,0,0,0,0,0],"sum_hessian":[5.3382495E3,6.826393E1,5.269986E3,4.106256E2,4.8593604E3,2.0752069E2,2.031049E2,1.5122521E3,3.3471082E3,2.0496942E2,2.5512648E0,8.167015E1,1.2143475E2,9.851259E1,1.4137395E3,1.5631531E3,1.7839551E3,1.766244E2,2.8345022E1,1.234736E0,1.3165286E0,1.2152118E1,6.9518036E1,1.0561921E2,1.5815547E1,2.015229E1,7.83603E1,1.0815623E3,3.3217725E2,1.352349E3,2.1080406E2,6.2260516E2,1.16135E3,1.8140839E1,1.5848357E2,1.38840685E1,1.4460954E1,6.084995E0,6.0671234E0,6.450202E1,5.016011E0,1.2721404E1,9.2897804E1,1.3833764E1,1.9817834E0,6.1726604E0,1.397963E1,7.734389E1,1.0164133E0,2.316843E2,8.49878E2,2.9711118E2,3.506608E1,1.8785732E2,1.1644917E3,1.5523299E2,5.5571075E1,4.9011362E2,1.3249155E2,5.0215182E2,6.591981E2],"tree_param":{"num_deleted":"0","num_feature":"29","num_nodes":"61","size_leaf_vector":"1"}}]},"name":"gbtree"},"learner_model_param":{"base_score":"1.3083416E-1","boost_from_average":"1","num_class":"0","num_feature":"29","num_target":"1"},"objective":{"name":"binary:logistic","reg_loss_param":{"scale_pos_weight":"1"}}},"version":[2,0,2]}